{"learner":{"attributes":{"scikit_learn":"{\"_estimator_type\": \"regressor\"}"},"feature_names":["age","bmi","bp_systolic","bp_diastolic","heart_rate","temperature","respiratory_rate","white_blood_cells","hemoglobin","glucose","creatinine","platelets","has_diabetes","has_hypertension","has_copd","has_heart_disease","has_kidney_disease","map","pulse_pressure","comorbidity_count","clinical_risk","bmi_risk","age_group","glucose_risk","hemoglobin_risk","gender_encoded"],"feature_types":["float","float","float","float","float","float","float","float","float","float","float","float","float","float","float","float","float","float","float","float","float","float","float","float","float","float"],"gradient_booster":{"model":{"cats":{"enc":[],"feature_segments":[],"sorted_idx":[]},"gbtree_model_param":{"num_parallel_tree":"1","num_trees":"200"},"iteration_indptr":[0,1,2,3,4,5,6,7,8,9,10,11,12,13,14,15,16,17,18,19,20,21,22,23,24,25,26,27,28,29,30,31,32,33,34,35,36,37,38,39,40,41,42,43,44,45,46,47,48,49,50,51,52,53,54,55,56,57,58,59,60,61,62,63,64,65,66,67,68,69,70,71,72,73,74,75,76,77,78,79,80,81,82,83,84,85,86,87,88,89,90,91,92,93,94,95,96,97,98,99,100,101,102,103,104,105,106,107,108,109,110,111,112,113,114,115,116,117,118,119,120,121,122,123,124,125,126,127,128,129,130,131,132,133,134,135,136,137,138,139,140,141,142,143,144,145,146,147,148,149,150,151,152,153,154,155,156,157,158,159,160,161,162,163,164,165,166,167,168,169,170,171,172,173,174,175,176,177,178,179,180,181,182,183,184,185,186,187,188,189,190,191,192,193,194,195,196,197,198,199,200],"tree_info":[0,0,0,0,0,0,0,0,0,0,0,0,0,0,0,0,0,0,0,0,0,0,0,0,0,0,0,0,0,0,0,0,0,0,0,0,0,0,0,0,0,0,0,0,0,0,0,0,0,0,0,0,0,0,0,0,0,0,0,0,0,0,0,0,0,0,0,0,0,0,0,0,0,0,0,0,0,0,0,0,0,0,0,0,0,0,0,0,0,0,0,0,0,0,0,0,0,0,0,0,0,0,0,0,0,0,0,0,0,0,0,0,0,0,0,0,0,0,0,0,0,0,0,0,0,0,0,0,0,0,0,0,0,0,0,0,0,0,0,0,0,0,0,0,0,0,0,0,0,0,0,0,0,0,0,0,0,0,0,0,0,0,0,0,0,0,0,0,0,0,0,0,0,0,0,0,0,0,0,0,0,0,0,0,0,0,0,0,0,0,0,0,0,0,0,0,0,0,0,0],"trees":[{"base_weights":[-1.9566779E-1,-1.1574576E0,3.4780188E0,5.175595E0,-1.2903574E0,7.1000605E0,1.1679063E0,-1.6500002E0,2.73475E1,2.7343735E-1,-1.649187E0,1.48984375E1,4.409575E0,4.1101173E-1,7.644118E0,-2.5574222E0,-7.5906265E-1,1.7225392E0,-2.664063E-2,1.2540937E1,-4.211866E-1,-2.5828748E0,-7.2063595E-1,2.4857953E0,2.2500977E1,3.5196426E0,1.8233594E0,-3.096079E-1,1.6578124E0,2.5548077E0,1.93475E1,-1.385268E-1,-2.664063E-2,-9.3242204E-1,-2.1875063E-3,2.161198E1,-8.5250014E-1,6.017E0,-1.470425E0,-2.6699939E0,3.6119792E0,-1.3016587E0,1.118718E0,-1.5906267E-1,7.233594E-1,3.9163887E1,9.4257796E-1,9.989086E-1,1.3872083E1,-5.647137E-1,5.0244546E-1,8.229465E0,6.6490865E-1,5.767044E-1,8.95625E0,4.7812495E-2,1.5644792E0,-5.2812513E-2,-1.6406298E-3,-1.0218751E-1,1.6975392E0,-6.8854176E-2,-2.1875063E-3,1.4903532E-1,1.3644792E0,-1.09030806E-1,-4.3830894E-2,-3.521563E-2,-1.4723735E-1,-5.2625008E-2,6.733594E-1,-9.1761254E-2,2.5638197E-2,1.4983594E0,2.5618551E-2,1.8616064E-2,-5.2460946E-2,2.203379E0,-1.6406298E-3,6.3932285E-2,-2.1875063E-3,-8.089812E-4,1.5983595E0,2.181146E0,2.9697117E-1,-3.6823742E-2,3.5972215E-2,3.808823E-2,-9.955365E-3,7.2539054E-2,6.475391E-1,1.7315697E-2,9.204687E-2,-1.8854173E-2,4.152777E-2,6.233594E-1,4.835937E-2],"categories":[],"categories_nodes":[],"categories_segments":[],"categories_sizes":[],"default_left":[0,0,0,0,0,0,0,0,0,0,0,0,0,0,0,0,0,0,0,0,0,0,0,0,0,0,0,0,0,0,0,0,0,0,0,0,0,0,0,0,0,0,0,0,0,0,0,0,0,0,0,0,0,0,0,0,0,0,0,0,0,0,0,0,0,0,0,0,0,0,0,0,0,0,0,0,0,0,0,0,0,0,0,0,0,0,0,0,0,0,0,0,0,0,0,0,0],"id":0,"left_children":[1,3,5,7,9,11,13,15,17,19,21,23,25,27,29,31,33,-1,-1,35,37,39,41,43,45,47,-1,49,51,53,55,-1,-1,57,-1,59,61,63,65,67,69,71,73,75,-1,77,79,81,83,85,87,89,91,93,95,-1,-1,-1,-1,-1,-1,-1,-1,-1,-1,-1,-1,-1,-1,-1,-1,-1,-1,-1,-1,-1,-1,-1,-1,-1,-1,-1,-1,-1,-1,-1,-1,-1,-1,-1,-1,-1,-1,-1,-1,-1,-1],"loss_changes":[4.5125337E3,8.584402E2,2.2090488E3,3.2231885E3,5.5709753E2,2.0953906E3,7.95853E2,1.1802513E1,1.0085647E3,1.5902438E3,6.9778906E2,2.3976245E3,2.096919E3,1.3258821E2,9.6312744E2,1.9756012E0,1.1992674E0,0E0,0E0,1.2333484E3,1.2045166E3,2.2659888E2,4.35351E2,3.508811E2,5.710696E3,1.9955157E3,0E0,1.9756735E1,3.4687912E2,1.5945016E2,1.0682285E3,0E0,0E0,8.565173E-1,0E0,1.8206875E3,2.0610363E0,1.5334031E3,6.2611084E1,2.1233643E2,2.8999072E2,3.0008856E2,1.6988796E3,5.1207933E0,0E0,1.7313223E3,2.707725E0,1.9809559E3,3.2809539E3,1.6410774E1,4.335971E0,2.0524146E2,1.7346931E1,2.9765086E0,7.20892E1,0E0,0E0,0E0,0E0,0E0,0E0,0E0,0E0,0E0,0E0,0E0,0E0,0E0,0E0,0E0,0E0,0E0,0E0,0E0,0E0,0E0,0E0,0E0,0E0,0E0,0E0,0E0,0E0,0E0,0E0,0E0,0E0,0E0,0E0,0E0,0E0,0E0,0E0,0E0,0E0,0E0,0E0],"parents":[2147483647,0,0,1,1,2,2,3,3,4,4,5,5,6,6,7,7,8,8,9,9,10,10,11,11,12,12,13,13,14,14,15,15,16,16,19,19,20,20,21,21,22,22,23,23,24,24,25,25,27,27,28,28,29,29,30,30,33,33,35,35,36,36,37,37,38,38,39,39,40,40,41,41,42,42,43,43,45,45,46,46,47,47,48,48,49,49,50,50,51,51,52,52,53,53,54,54],"right_children":[2,4,6,8,10,12,14,16,18,20,22,24,26,28,30,32,34,-1,-1,36,38,40,42,44,46,48,-1,50,52,54,56,-1,-1,58,-1,60,62,64,66,68,70,72,74,76,-1,78,80,82,84,86,88,90,92,94,96,-1,-1,-1,-1,-1,-1,-1,-1,-1,-1,-1,-1,-1,-1,-1,-1,-1,-1,-1,-1,-1,-1,-1,-1,-1,-1,-1,-1,-1,-1,-1,-1,-1,-1,-1,-1,-1,-1,-1,-1,-1,-1],"split_conditions":[1.3447617E0,-2.0278437E0,-2.9343417E-1,2.4381232E0,-9.089779E-1,-9.032436E-1,1.5265205E0,1.547071E-1,2.1099176E-1,-1.4778576E0,1.547071E-1,-1.0688823E0,2.1782808E0,3.204688E-1,1.7208735E0,7.896062E-1,7.896062E-1,1.7225392E0,-2.664063E-2,-3.9031675E-1,-1.088688E0,2.2510886E0,7.115424E-1,1.7208735E0,-7.596188E-1,-4.9580425E-1,1.8233594E0,9.7418135E-1,3.8105726E-1,-5.29295E-2,1.3099461E0,-1.385268E-1,-2.664063E-2,6.495843E-1,-2.1875063E-3,-1.5373685E0,7.087701E-1,-1.1849294E0,1.547071E-1,-1.1383517E0,2.688532E-1,9.057782E-1,7.2381544E-1,-6.3201636E-1,7.233594E-1,9.6319056E-1,-7.710046E-1,1.9014229E0,-4.4841498E-1,2.5348163E0,5.8807343E-1,3.4788886E-1,2.5348163E0,-1.0040985E0,-1.3617691E-1,4.7812495E-2,1.5644792E0,-5.2812513E-2,-1.6406298E-3,-1.0218751E-1,1.6975392E0,-6.8854176E-2,-2.1875063E-3,1.4903532E-1,1.3644792E0,-1.09030806E-1,-4.3830894E-2,-3.521563E-2,-1.4723735E-1,-5.2625008E-2,6.733594E-1,-9.1761254E-2,2.5638197E-2,1.4983594E0,2.5618551E-2,1.8616064E-2,-5.2460946E-2,2.203379E0,-1.6406298E-3,6.3932285E-2,-2.1875063E-3,-8.089812E-4,1.5983595E0,2.181146E0,2.9697117E-1,-3.6823742E-2,3.5972215E-2,3.808823E-2,-9.955365E-3,7.2539054E-2,6.475391E-1,1.7315697E-2,9.204687E-2,-1.8854173E-2,4.152777E-2,6.233594E-1,4.835937E-2],"split_indices":[19,2,1,15,4,17,18,19,0,1,19,1,0,18,24,0,0,0,0,2,11,4,3,24,1,1,0,3,18,11,2,0,0,4,0,2,2,11,19,3,0,4,3,3,0,0,3,11,1,19,11,18,19,0,0,0,0,0,0,0,0,0,0,0,0,0,0,0,0,0,0,0,0,0,0,0,0,0,0,0,0,0,0,0,0,0,0,0,0,0,0,0,0,0,0,0,0],"split_type":[0,0,0,0,0,0,0,0,0,0,0,0,0,0,0,0,0,0,0,0,0,0,0,0,0,0,0,0,0,0,0,0,0,0,0,0,0,0,0,0,0,0,0,0,0,0,0,0,0,0,0,0,0,0,0,0,0,0,0,0,0,0,0,0,0,0,0,0,0,0,0,0,0,0,0,0,0,0,0,0,0,0,0,0,0,0,0,0,0,0,0,0,0,0,0,0,0],"sum_hessian":[1.275E3,1.011E3,2.64E2,2E1,9.91E2,1.02E2,1.62E2,1.6E1,4E0,1.85E2,8.06E2,2.5E1,7.7E1,1.46E2,1.6E1,7E0,9E0,3E0,1E0,9E0,1.76E2,4.01E2,4.05E2,1E1,1.5E1,7.6E1,1E0,9.3E1,5.3E1,1.2E1,4E0,6E0,1E0,7E0,2E0,5E0,4E0,2.4E1,1.52E2,3.96E2,5E0,3.08E2,9.7E1,9E0,1E0,8E0,7E0,6.2E1,1.4E1,7.1E1,2.2E1,6E0,4.7E1,1E1,2E0,2E0,2E0,6E0,1E0,2E0,3E0,2E0,2E0,2.2E1,2E0,6.8E1,8.4E1,4.9E1,3.47E2,4E0,1E0,2.38E2,7E1,1E0,9.6E1,6E0,3E0,7E0,1E0,5E0,2E0,6.1E1,1E0,2E0,1.2E1,6.3E1,8E0,1.6E1,6E0,3E0,3E0,3.8E1,9E0,2E0,8E0,1E0,1E0],"tree_param":{"num_deleted":"0","num_feature":"26","num_nodes":"97","size_leaf_vector":"1"}},{"base_weights":[-1.5399054E-1,-1.0126623E0,2.0183752E0,-1.4719039E0,4.0272272E-1,3.7877226E-1,4.7441416E0,-1.7281495E0,1.2133116E0,-3.4209013E-1,4.835739E0,9.727189E-1,2.0599206E-1,1.1007723E1,8.847751E-1,-2.017854E0,1.4918327E0,1.0849528E1,-4.7782806E-1,8.9805155E0,-5.386238E-1,2.05473E1,4.1971338E-1,3.4708357E0,-3.9969856E-1,1.5228908E1,-1.2360454E0,2.4431898E-1,1.8095652E1,3.5644362E0,-2.0833278E0,-2.739344E-1,1.5075037E1,-1.6608633E0,2.6902733E1,9.2445517E-1,-1.2122601E0,-3.6802545E-1,9.2565346E-1,-7.015578E-1,3.774607E0,1.8105458E0,-2.5313592E-1,-9.4332004E-1,6.3331175E0,2.0234808E1,1.2668756E0,9.182023E0,-7.640283E-1,3.2609875E0,2.7025196E1,-1.5554714E0,-2.4306178E-3,7.108767E0,-6.9936323E-1,1.3092474E0,4.7926474E-2,-3.4421325E-2,7.270403E-1,-5.4746043E-2,-1.2453897E-1,5.5261177E-1,-9.427182E-2,1.5078809E0,-2.8289558E-4,-2.5218153E-2,-1.3246213E-1,1.7773288E0,2.4279952E-2,1.6097973E-1,-7.78163E-2,-2.5320316E-2,-2.2815943E-3,-4.3840595E-2,1.9025259E-1,-2.9054238E-2,7.4771893E-1,4.837959E-2,-4.9128786E-2,2.1681642E-2,-5.9177823E-2,7.729265E-1,9.356618E-3,4.7926474E-2,1.3170363E0,-3.694199E-3,7.12609E-1,8.3134717E-1,-2.7920175E-2,-6.9947444E-2,7.345427E-2,1.5584004E0,7.588786E-3,1.7303298E0,4.5423564E-1,-1.4097869E-2,-9.9889725E-2,-4.9955784E-3,1.1981161E0,7.7086106E-2,-4.2581253E-2],"categories":[],"categories_nodes":[],"categories_segments":[],"categories_sizes":[],"default_left":[0,0,0,0,0,0,0,0,0,0,0,0,0,0,0,0,0,0,0,0,0,0,0,0,0,0,0,0,0,0,0,0,0,0,0,0,0,0,0,0,0,0,0,0,0,0,0,0,0,0,0,0,0,0,0,0,0,0,0,0,0,0,0,0,0,0,0,0,0,0,0,0,0,0,0,0,0,0,0,0,0,0,0,0,0,0,0,0,0,0,0,0,0,0,0,0,0,0,0,0,0],"id":1,"left_children":[1,3,5,7,9,11,13,15,17,19,21,-1,23,25,27,29,31,33,35,37,39,41,43,45,47,49,51,53,55,57,59,61,63,65,67,-1,69,71,-1,73,75,-1,77,79,81,83,85,87,89,91,93,95,-1,97,99,-1,-1,-1,-1,-1,-1,-1,-1,-1,-1,-1,-1,-1,-1,-1,-1,-1,-1,-1,-1,-1,-1,-1,-1,-1,-1,-1,-1,-1,-1,-1,-1,-1,-1,-1,-1,-1,-1,-1,-1,-1,-1,-1,-1,-1,-1],"loss_changes":[2.3505186E3,5.875462E2,1.5936982E3,4.7136377E2,7.346467E2,7.342713E2,3.2295037E3,5.8417163E2,9.8295544E2,3.5478848E2,2.211621E3,0E0,4.423665E2,2.654667E3,9.214951E2,2.1648853E2,1.2513379E3,1.8521686E3,7.467696E2,3.6327515E2,1.3476924E2,2.2898362E3,2.1553851E2,1.2675145E3,6.6679663E2,5.2765986E3,5.234543E0,5.3615594E2,3.9078265E2,3.3677722E2,2.252168E2,8.786891E2,1.3649054E3,5.5221844E0,8.961211E2,0E0,8.2778076E1,1.10730976E-1,0E0,1.4708017E2,3.495592E2,0E0,4.5125217E0,7.790701E0,2.7753046E2,4.4554895E2,5.5817847E2,5.169014E2,2.6152167E2,1.7306461E3,2.269875E3,5.6330585E0,0E0,1.2173126E3,2.6222874E1,0E0,0E0,0E0,0E0,0E0,0E0,0E0,0E0,0E0,0E0,0E0,0E0,0E0,0E0,0E0,0E0,0E0,0E0,0E0,0E0,0E0,0E0,0E0,0E0,0E0,0E0,0E0,0E0,0E0,0E0,0E0,0E0,0E0,0E0,0E0,0E0,0E0,0E0,0E0,0E0,0E0,0E0,0E0,0E0,0E0,0E0],"parents":[2147483647,0,0,1,1,2,2,3,3,4,4,5,5,6,6,7,7,8,8,9,9,10,10,12,12,13,13,14,14,15,15,16,16,17,17,18,18,19,19,20,20,21,21,22,22,23,23,24,24,25,25,26,26,27,27,28,28,29,29,30,30,31,31,32,32,33,33,34,34,36,36,37,37,39,39,40,40,42,42,43,43,44,44,45,45,46,46,47,47,48,48,49,49,50,50,51,51,53,53,54,54],"right_children":[2,4,6,8,10,12,14,16,18,20,22,-1,24,26,28,30,32,34,36,38,40,42,44,46,48,50,52,54,56,58,60,62,64,66,68,-1,70,72,-1,74,76,-1,78,80,82,84,86,88,90,92,94,96,-1,98,100,-1,-1,-1,-1,-1,-1,-1,-1,-1,-1,-1,-1,-1,-1,-1,-1,-1,-1,-1,-1,-1,-1,-1,-1,-1,-1,-1,-1,-1,-1,-1,-1,-1,-1,-1,-1,-1,-1,-1,-1,-1,-1,-1,-1,-1,-1],"split_conditions":[1.5742493E0,1.7650003E0,2.7896228E-1,2.9834528E0,1.0946032E0,-1.1835376E0,1.0121202E-1,1.4598222E0,-8.5134697E-1,-2.0695252E0,-8.3051425E-1,9.727189E-1,-1.040628E0,9.729488E-2,2.3384516E0,-2.235126E0,1.5360788E0,-1.457026E-2,-2.4251375E0,-1.3991172E0,2.0219727E0,1.8359947E0,2.9834528E0,-7.6351243E-1,-1.4879041E0,-6.128151E-1,1.7208735E0,-1.1749126E0,-1.9403835E-1,9.053291E-1,-4.9844262E-1,-1.040628E0,-7.1368285E-2,-2.0694599E-1,4.4243753E-1,9.2445517E-1,-1.2588996E0,-1.6405745E0,9.2565346E-1,1.9014229E0,6.852501E-1,1.8105458E0,-2.103466E0,-2.0112634E0,-3.0976123E-1,-9.094742E-1,-1.0570056E0,-4.0982452E-1,1.7650003E0,-1.6405745E0,7.837028E-1,-1.0297086E0,-2.4306178E-3,8.894895E-1,-1.8059027E0,1.3092474E0,4.7926474E-2,-3.4421325E-2,7.270403E-1,-5.4746043E-2,-1.2453897E-1,5.5261177E-1,-9.427182E-2,1.5078809E0,-2.8289558E-4,-2.5218153E-2,-1.3246213E-1,1.7773288E0,2.4279952E-2,1.6097973E-1,-7.78163E-2,-2.5320316E-2,-2.2815943E-3,-4.3840595E-2,1.9025259E-1,-2.9054238E-2,7.4771893E-1,4.837959E-2,-4.9128786E-2,2.1681642E-2,-5.9177823E-2,7.729265E-1,9.356618E-3,4.7926474E-2,1.3170363E0,-3.694199E-3,7.12609E-1,8.3134717E-1,-2.7920175E-2,-6.9947444E-2,7.345427E-2,1.5584004E0,7.588786E-3,1.7303298E0,4.5423564E-1,-1.4097869E-2,-9.9889725E-2,-4.9955784E-3,1.1981161E0,7.7086106E-2,-4.2581253E-2],"split_indices":[13,12,11,14,9,7,21,6,7,17,0,0,4,7,10,6,4,4,4,3,10,9,14,10,18,7,24,18,0,0,4,4,3,4,0,0,5,0,0,11,3,0,0,3,0,3,4,10,12,0,11,17,0,6,4,0,0,0,0,0,0,0,0,0,0,0,0,0,0,0,0,0,0,0,0,0,0,0,0,0,0,0,0,0,0,0,0,0,0,0,0,0,0,0,0,0,0,0,0,0,0],"split_type":[0,0,0,0,0,0,0,0,0,0,0,0,0,0,0,0,0,0,0,0,0,0,0,0,0,0,0,0,0,0,0,0,0,0,0,0,0,0,0,0,0,0,0,0,0,0,0,0,0,0,0,0,0,0,0,0,0,0,0,0,0,0,0,0,0,0,0,0,0,0,0,0,0,0,0,0,0,0,0,0,0,0,0,0,0,0,0,0,0,0,0,0,0,0,0,0,0,0,0,0,0],"sum_hessian":[1.258E3,9.02E2,3.56E2,6.81E2,2.21E2,2.23E2,1.33E2,6.22E2,5.9E1,1.9E2,3.1E1,1E0,2.22E2,5E1,8.3E1,5.71E2,5.1E1,8E0,5.1E1,3E0,1.87E2,6E0,2.5E1,3.4E1,1.88E2,3.7E1,1.3E1,8.1E1,2E0,6E0,5.65E2,4.6E1,5E0,5E0,3E0,1E0,5E1,2E0,1E0,1.81E2,6E0,3E0,3E0,2.1E1,4E0,3E0,3.1E1,6E0,1.82E2,1.9E1,1.8E1,1E1,3E0,9E0,7.2E1,1E0,1E0,5E0,1E0,1.66E2,3.99E2,5E0,4.1E1,2E0,3E0,3E0,2E0,2E0,1E0,3E0,4.7E1,1E0,1E0,1.75E2,6E0,5E0,1E0,1E0,2E0,3E0,1.8E1,1E0,3E0,1E0,2E0,2.9E1,2E0,3E0,3E0,1.42E2,4E1,1E0,1.8E1,1.2E1,6E0,3E0,7E0,7E0,2E0,4E0,6.8E1],"tree_param":{"num_deleted":"0","num_feature":"26","num_nodes":"101","size_leaf_vector":"1"}},{"base_weights":[-2.1700729E-2,-6.736198E-1,1.9850914E0,1.870192E0,-9.938227E-1,4.9919586E0,9.567405E-1,5.503804E-2,1.136982E1,7.734787E-1,-1.3822639E0,2.8983877E0,1.6265068E1,7.43345E0,3.3830005E-1,1.6234638E1,-1.0876989E0,2.174746E1,-2.711331E-1,1.3628767E1,-3.5348218E-2,-1.8425068E0,1.5092963E-1,1.1079049E0,1.4313953E1,-9.8508805E-1,3.3679405E1,1.6431332E-1,2.0909801E1,-8.2361296E-2,7.3211308E0,-1.0487819E-1,1.7633015E0,-1.5924067E0,9.530736E0,3.2624237E1,-4.5707226E-3,-7.4985105E-1,5.147271E-1,1.6001593E0,-8.923073E-1,-4.1690978E-1,1.8037016E1,8.061327E0,-1.914182E0,-1.0099002E-1,1.0051539E0,3.8354936E-1,1.4501359E1,2.1848814E0,-3.239005E-1,-1.5117229E0,2.209994E-1,4.717009E-2,2.0018964E0,-6.392555E-1,1.0592043E0,1.7834212E0,9.237325E-1,-2.5082624E-1,4.59829E0,1.7823915E1,-1.5825152E-1,-1.10454336E-1,9.253352E-2,-1.2646161E-1,1.142766E0,2.2459054E-2,1.9484705E0,-1.7318487E-2,2.5520658E-2,8.323908E-4,-4.5324024E-2,1.282692E-4,3.422963E-2,2.5823785E-2,-6.386795E-2,-4.585493E-2,5.536777E-1,-2.4176216E-2,1.3769524E0,-9.484542E-2,9.484009E-1,-1.163468E-2,-1.1276615E-1,-4.0892143E-2,2.7798963E-1,2.9051778E-1,-1.8441346E-2,-4.4291737E-3,1.0920311E0,-4.84983E-2,4.3042105E-2,-3.0824503E-2,-9.515241E-2,-3.9098742E-3,2.048483E-2,-5.2860405E-2,-8.85212E-3,6.231453E-2,-1.5828133E-3,-2.2245646E-3,6.3065216E-2,-2.138541E-2,2.2677751E-1,2.5224939E-2,7.2902596E-1,2.7602276E-2,1.4577241E0,-7.44942E-2,1.2788819E-1],"categories":[],"categories_nodes":[],"categories_segments":[],"categories_sizes":[],"default_left":[0,0,0,0,0,0,0,0,0,0,0,0,0,0,0,0,0,0,0,0,0,0,0,0,0,0,0,0,0,0,0,0,0,0,0,0,0,0,0,0,0,0,0,0,0,0,0,0,0,0,0,0,0,0,0,0,0,0,0,0,0,0,0,0,0,0,0,0,0,0,0,0,0,0,0,0,0,0,0,0,0,0,0,0,0,0,0,0,0,0,0,0,0,0,0,0,0,0,0,0,0,0,0,0,0,0,0,0,0,0,0],"id":2,"left_children":[1,3,5,7,9,11,13,15,17,19,21,23,25,27,29,31,33,35,37,39,41,43,45,47,49,51,53,55,57,59,61,-1,-1,63,65,67,69,71,73,-1,75,77,79,81,83,85,-1,87,89,-1,91,93,95,-1,-1,97,99,-1,101,103,105,107,109,-1,-1,-1,-1,-1,-1,-1,-1,-1,-1,-1,-1,-1,-1,-1,-1,-1,-1,-1,-1,-1,-1,-1,-1,-1,-1,-1,-1,-1,-1,-1,-1,-1,-1,-1,-1,-1,-1,-1,-1,-1,-1,-1,-1,-1,-1,-1,-1],"loss_changes":[1.6379781E3,7.715951E2,9.445033E2,1.8271628E3,5.777229E2,1.7937399E3,9.187409E2,1.681671E3,2.0595923E3,1.5809326E3,4.864651E2,1.3535796E3,3.6379778E3,1.9557931E3,6.203958E2,2.1672964E3,4.707094E2,2.1294766E3,3.7718174E0,2.4299038E3,1.0005034E3,3.9165625E2,8.0624426E2,5.6683374E2,3.8851787E3,4.780264E0,1.2111431E3,1.0744595E1,2.0318196E3,1.588585E2,9.4547284E2,0E0,0E0,1.7819695E2,7.0058264E2,1.2074336E3,8.808756E-1,7.354276E-1,3.4623802E-1,0E0,3.9144502E0,8.2628644E2,5.412641E2,4.704262E2,3.0177515E2,6.497607E2,0E0,2.34874E2,3.2317297E2,0E0,6.192936E0,5.7842636E-1,2.0141004E-1,0E0,0E0,1.3582947E0,1.4680471E0,0E0,1.363497E0,1.6618488E2,2.7870026E2,9.6240576E2,3.2744644E1,0E0,0E0,0E0,0E0,0E0,0E0,0E0,0E0,0E0,0E0,0E0,0E0,0E0,0E0,0E0,0E0,0E0,0E0,0E0,0E0,0E0,0E0,0E0,0E0,0E0,0E0,0E0,0E0,0E0,0E0,0E0,0E0,0E0,0E0,0E0,0E0,0E0,0E0,0E0,0E0,0E0,0E0,0E0,0E0,0E0,0E0,0E0,0E0],"parents":[2147483647,0,0,1,1,2,2,3,3,4,4,5,5,6,6,7,7,8,8,9,9,10,10,11,11,12,12,13,13,14,14,15,15,16,16,17,17,18,18,19,19,20,20,21,21,22,22,23,23,24,24,25,25,26,26,27,27,28,28,29,29,30,30,33,33,34,34,35,35,36,36,37,37,38,38,40,40,41,41,42,42,43,43,44,44,45,45,47,47,48,48,50,50,51,51,52,52,55,55,56,56,58,58,59,59,60,60,61,61,62,62],"right_children":[2,4,6,8,10,12,14,16,18,20,22,24,26,28,30,32,34,36,38,40,42,44,46,48,50,52,54,56,58,60,62,-1,-1,64,66,68,70,72,74,-1,76,78,80,82,84,86,-1,88,90,-1,92,94,96,-1,-1,98,100,-1,102,104,106,108,110,-1,-1,-1,-1,-1,-1,-1,-1,-1,-1,-1,-1,-1,-1,-1,-1,-1,-1,-1,-1,-1,-1,-1,-1,-1,-1,-1,-1,-1,-1,-1,-1,-1,-1,-1,-1,-1,-1,-1,-1,-1,-1,-1,-1,-1,-1,-1,-1],"split_conditions":[1.7650003E0,-1.1749126E0,-7.1479136E-1,2.4381232E0,-9.089779E-1,1.0118171E0,-1.3316638E0,-1.934185E0,-2.503452E-1,-7.6351243E-1,8.9230824E-1,-7.726528E-1,-2.9078557E-3,5.581604E-1,1.946835E0,-2.0857255E0,-1.2042664E0,1.0440291E0,3.9943323E-1,-1.088688E0,2.971475E0,-6.6989124E-1,2.4998615E0,1.9794497E0,-3.947194E-1,-5.8426987E-3,-2.103466E0,1.2042624E0,3.2392865E-1,2.0219727E0,-7.151555E-1,-1.0487819E-1,1.7633015E0,7.398776E-1,8.140998E-1,-7.710046E-1,5.581604E-1,-9.4623715E-1,-8.883757E-1,1.6001593E0,-1.1198214E0,1.481401E0,-7.831547E-2,-7.831547E-2,-1.0119891E0,2.9834528E0,1.0051539E0,-1.3673153E0,-1.8720202E0,2.1848814E0,-1.3933173E-1,-1.584949E0,-1.8141588E0,4.717009E-2,2.0018964E0,-8.147906E-1,-9.969399E-2,1.7834212E0,-2.297421E0,1.7989378E0,2.2025014E-1,-1.3846107E0,4.4869915E-1,-1.10454336E-1,9.253352E-2,-1.2646161E-1,1.142766E0,2.2459054E-2,1.9484705E0,-1.7318487E-2,2.5520658E-2,8.323908E-4,-4.5324024E-2,1.282692E-4,3.422963E-2,2.5823785E-2,-6.386795E-2,-4.585493E-2,5.536777E-1,-2.4176216E-2,1.3769524E0,-9.484542E-2,9.484009E-1,-1.163468E-2,-1.1276615E-1,-4.0892143E-2,2.7798963E-1,2.9051778E-1,-1.8441346E-2,-4.4291737E-3,1.0920311E0,-4.84983E-2,4.3042105E-2,-3.0824503E-2,-9.515241E-2,-3.9098742E-3,2.048483E-2,-5.2860405E-2,-8.85212E-3,6.231453E-2,-1.5828133E-3,-2.2245646E-3,6.3065216E-2,-2.138541E-2,2.2677751E-1,2.5224939E-2,7.2902596E-1,2.7602276E-2,1.4577241E0,-7.44942E-2,1.2788819E-1],"split_indices":[12,18,0,15,4,9,3,1,7,10,4,0,3,0,0,1,18,3,6,11,7,20,5,6,6,1,0,18,1,10,4,0,0,7,3,3,0,0,0,0,0,6,0,0,3,14,0,11,0,0,4,3,0,0,0,5,7,0,3,9,3,4,1,0,0,0,0,0,0,0,0,0,0,0,0,0,0,0,0,0,0,0,0,0,0,0,0,0,0,0,0,0,0,0,0,0,0,0,0,0,0,0,0,0,0,0,0,0,0,0,0],"split_type":[0,0,0,0,0,0,0,0,0,0,0,0,0,0,0,0,0,0,0,0,0,0,0,0,0,0,0,0,0,0,0,0,0,0,0,0,0,0,0,0,0,0,0,0,0,0,0,0,0,0,0,0,0,0,0,0,0,0,0,0,0,0,0,0,0,0,0,0,0,0,0,0,0,0,0,0,0,0,0,0,0,0,0,0,0,0,0,0,0,0,0,0,0,0,0,0,0,0,0,0,0,0,0,0,0,0,0,0,0,0,0],"sum_hessian":[1.25E3,9.44E2,3.06E2,1.05E2,8.39E2,7.7E1,2.29E2,8.9E1,1.6E1,1.51E2,6.88E2,6.6E1,1.1E1,1.9E1,2.1E2,5E0,8.4E1,8E0,8E0,8E0,1.43E2,5.29E2,1.59E2,5.8E1,8E0,6E0,5E0,1.3E1,6E0,1.99E2,1.1E1,3E0,2E0,8.1E1,3E0,5E0,3E0,5E0,3E0,3E0,5E0,1.41E2,2E0,3E0,5.26E2,1.58E2,1E0,5.6E1,2E0,2E0,6E0,4E0,2E0,1E0,4E0,7E0,6E0,3E0,3E0,1.93E2,6E0,4E0,7E0,6.9E1,1.2E1,2E0,1E0,1E0,4E0,2E0,1E0,1E0,4E0,1E0,2E0,1E0,4E0,1.36E2,5E0,1E0,1E0,2E0,1E0,8.9E1,4.37E2,1.41E2,1.7E1,6E0,5E1,1E0,1E0,4E0,2E0,2E0,2E0,1E0,1E0,3E0,4E0,5E0,1E0,1E0,2E0,1.87E2,6E0,5E0,1E0,2E0,2E0,5E0,2E0],"tree_param":{"num_deleted":"0","num_feature":"26","num_nodes":"111","size_leaf_vector":"1"}},{"base_weights":[-1.2269369E-1,-8.8786584E-1,2.8366325E0,-1.0174208E0,5.621315E0,6.193386E0,1.4645585E0,-1.9526643E0,-7.826399E-2,1.2855702E1,-2.7291822E-1,1.9400854E1,2.0590165E0,1.2517244E0,1.4172091E1,-2.7054975E0,-1.2639687E0,3.355582E0,-4.2601433E-1,3.7237673E0,1.4939159E0,-1.2363733E0,3.63356E-1,2.1311247E0,4.0721626E1,9.0298676E-1,1.436354E1,1.0438727E0,1.3582719E1,1.0647303E0,-1.823473E-3,-1.6592331E0,-3.033409E0,-1.4127606E0,1.2102254E1,1.96849E1,4.140619E-1,-5.3768086E-1,5.866606E0,6.1985064E-1,2.1205759E-1,-1.8823886E-2,-6.786139E-2,-4.3630624E-1,4.652073E-2,7.039737E-1,-4.7165745E-1,-6.1717033E-3,2.3287134E0,-3.2408625E-1,1.0978097E1,5.098772E-2,1.1459739E0,7.720672E-1,1.0620097E1,1.0200217E0,-1.3177395E-3,3.5389808E-1,-1.2116778E-1,-1.0895184E-2,-1.5646216E-1,-7.834115E-2,4.4387245E-1,-7.235589E-2,9.8002493E-1,-4.601872E-3,1.7270306E0,2.8709474E-1,-8.655543E-3,-5.1698126E-2,2.7898965E-2,-4.834494E-2,1.3425286E0,-2.6675401E-2,3.591087E-2,-3.032322E-2,1.8542052E-3,-4.3186035E-2,4.657497E-3,-3.0924642E-2,3.879728E-2,1.469393E0,7.0928656E-2,3.0563597E-2,3.1388232E-1,1.2793354E0,2.4088383E-2],"categories":[],"categories_nodes":[],"categories_segments":[],"categories_sizes":[],"default_left":[0,0,0,0,0,0,0,0,0,0,0,0,0,0,0,0,0,0,0,0,0,0,0,0,0,0,0,0,0,0,0,0,0,0,0,0,0,0,0,0,0,0,0,0,0,0,0,0,0,0,0,0,0,0,0,0,0,0,0,0,0,0,0,0,0,0,0,0,0,0,0,0,0,0,0,0,0,0,0,0,0,0,0,0,0,0,0],"id":3,"left_children":[1,3,5,7,9,11,13,15,17,19,21,23,25,27,29,31,33,35,37,39,-1,41,43,45,47,49,51,53,55,-1,-1,57,59,61,63,65,67,69,71,-1,73,-1,-1,75,-1,-1,77,-1,-1,79,81,-1,-1,83,85,-1,-1,-1,-1,-1,-1,-1,-1,-1,-1,-1,-1,-1,-1,-1,-1,-1,-1,-1,-1,-1,-1,-1,-1,-1,-1,-1,-1,-1,-1,-1,-1],"loss_changes":[2.8986787E3,8.633514E2,1.2022319E3,8.7643066E2,8.563318E2,4.109999E3,4.9072464E2,2.5581677E2,5.9729596E2,1.2877849E3,7.805504E0,6.5408887E3,8.262692E2,4.6254272E2,3.0437866E2,7.662036E1,5.4014844E2,2.2013682E3,3.221689E2,2.1057657E2,0E0,8.645058E-3,4.033589E0,3.4872913E2,1.9181602E3,6.8351715E2,5.474707E2,4.7072876E2,2.7888593E2,0E0,0E0,4.1105338E2,4.7885986E1,4.276814E2,3.3315372E2,2.059782E3,1.2612832E2,2.436359E2,1.173114E3,0E0,2.6474266E0,0E0,0E0,3.446951E-1,0E0,0E0,2.2948577E0,0E0,0E0,1.6672749E1,1.0142426E3,0E0,0E0,1.5551143E2,7.463553E2,0E0,0E0,0E0,0E0,0E0,0E0,0E0,0E0,0E0,0E0,0E0,0E0,0E0,0E0,0E0,0E0,0E0,0E0,0E0,0E0,0E0,0E0,0E0,0E0,0E0,0E0,0E0,0E0,0E0,0E0,0E0,0E0],"parents":[2147483647,0,0,1,1,2,2,3,3,4,4,5,5,6,6,7,7,8,8,9,9,10,10,11,11,12,12,13,13,14,14,15,15,16,16,17,17,18,18,19,19,21,21,22,22,23,23,24,24,25,25,26,26,27,27,28,28,31,31,32,32,33,33,34,34,35,35,36,36,37,37,38,38,40,40,43,43,46,46,49,49,50,50,53,53,54,54],"right_children":[2,4,6,8,10,12,14,16,18,20,22,24,26,28,30,32,34,36,38,40,-1,42,44,46,48,50,52,54,56,-1,-1,58,60,62,64,66,68,70,72,-1,74,-1,-1,76,-1,-1,78,-1,-1,80,82,-1,-1,84,86,-1,-1,-1,-1,-1,-1,-1,-1,-1,-1,-1,-1,-1,-1,-1,-1,-1,-1,-1,-1,-1,-1,-1,-1,-1,-1,-1,-1,-1,-1,-1,-1],"split_conditions":[1.3447617E0,2.095692E0,-7.596188E-1,1.547071E-1,-1.9173568E-1,-9.032436E-1,2.074169E0,-1.4504781E-1,-1.5534025E0,-4.4463265E-1,-8.249233E-2,-1.0688823E0,1.2524978E0,2.1782808E0,-1.2934058E0,-6.2904865E-1,2.4998615E0,-1.2356827E0,3.7249672E0,-1.1617614E0,1.4939159E0,-7.726528E-1,6.1368394E-1,-1.0391043E0,-1.8705591E0,1.4818426E0,-8.605439E-1,2.7531686E0,1.0870563E-1,1.0647303E0,-1.823473E-3,-1.4091287E0,-1.7233218E0,2.3320947E0,-1.5248516E0,-8.3051425E-1,-9.8373556E-1,3.1787553E-1,-3.8772893E-1,6.1985064E-1,-5.41207E-1,-1.8823886E-2,-6.786139E-2,2.688532E-1,4.652073E-2,7.039737E-1,-1.5259321E-1,-6.1717033E-3,2.3287134E0,9.831184E-1,-1.6405745E0,5.098772E-2,1.1459739E0,1.9796671E0,-4.9366915E-1,1.0200217E0,-1.3177395E-3,3.5389808E-1,-1.2116778E-1,-1.0895184E-2,-1.5646216E-1,-7.834115E-2,4.4387245E-1,-7.235589E-2,9.8002493E-1,-4.601872E-3,1.7270306E0,2.8709474E-1,-8.655543E-3,-5.1698126E-2,2.7898965E-2,-4.834494E-2,1.3425286E0,-2.6675401E-2,3.591087E-2,-3.032322E-2,1.8542052E-3,-4.3186035E-2,4.657497E-3,-3.0924642E-2,3.879728E-2,1.469393E0,7.0928656E-2,3.0563597E-2,3.1388232E-1,1.2793354E0,2.4088383E-2],"split_indices":[19,4,1,19,3,17,6,9,4,3,8,1,0,0,0,4,5,1,7,1,0,0,17,5,3,4,4,10,1,0,0,0,3,6,0,0,7,5,3,0,0,0,0,0,0,0,6,0,0,4,0,0,0,9,3,0,0,0,0,0,0,0,0,0,0,0,0,0,0,0,0,0,0,0,0,0,0,0,0,0,0,0,0,0,0,0,0],"split_type":[0,0,0,0,0,0,0,0,0,0,0,0,0,0,0,0,0,0,0,0,0,0,0,0,0,0,0,0,0,0,0,0,0,0,0,0,0,0,0,0,0,0,0,0,0,0,0,0,0,0,0,0,0,0,0,0,0,0,0,0,0,0,0,0,0,0,0,0,0,0,0,0,0,0,0,0,0,0,0,0,0,0,0,0,0,0,0],"sum_hessian":[1.278E3,1.016E3,2.62E2,9.97E2,1.9E1,7.5E1,1.87E2,4.99E2,4.98E2,8E0,1.1E1,1.7E1,5.8E1,1.85E2,2E0,2.37E2,2.62E2,4.5E1,4.53E2,6E0,2E0,4E0,7E0,1E1,7E0,5.4E1,4E0,1.83E2,2E0,1E0,1E0,5.8E1,1.79E2,2.6E2,2E0,6E0,3.9E1,4.46E2,7E0,1E0,5E0,1E0,3E0,3E0,4E0,1E0,9E0,1E0,6E0,4.9E1,5E0,2E0,2E0,1.79E2,4E0,1E0,1E0,4E0,5.4E1,6E0,1.73E2,2.57E2,3E0,1E0,1E0,3E0,3E0,3E0,3.6E1,3.07E2,1.39E2,6E0,1E0,2E0,3E0,2E0,1E0,5E0,4E0,3.9E1,1E1,1E0,4E0,1.75E2,4E0,1E0,3E0],"tree_param":{"num_deleted":"0","num_feature":"26","num_nodes":"87","size_leaf_vector":"1"}},{"base_weights":[1.8975832E-2,-8.5012573E-1,2.3018608E0,-1.2872602E0,5.6744254E-1,6.2423897E-1,5.219716E0,4.0897107E0,-1.4180602E0,2.1222384E-1,5.7283273E0,9.239935E-1,4.6129954E-1,1.0280749E1,1.9504576E0,1.5201796E0,5.4486895E-1,-1.6077447E0,3.668877E-1,2.6116545E0,-5.7863545E-1,2.2429346E1,-8.655276E-1,4.931119E0,6.849347E-2,5.262546E0,2.4158518E1,3.1239474E-1,1.6449217E1,-1.6960776E0,1.0820996E1,-1.7625713E0,5.6309048E-2,3.1946273E0,-1.2856792E0,3.1342542E-1,1.2003052E1,-9.668942E-1,8.860453E-1,1.4631647E0,4.8187733E-2,-1.3181877E0,2.5617456E-1,1.3003435E0,1.1325774E0,-6.8837416E-1,2.643607E0,1.1861044E1,-1.2691541E0,3.1856594E1,-5.631522E-2,4.6624103E0,-2.277979E-1,2.428472E-1,2.6124468E1,-5.8483522E-2,-1.2048381E-1,-2.2425486E-2,8.3400023E-1,-9.096228E-2,1.5277797E-1,-4.15461E-2,3.6463222E-1,4.763507E-1,1.0137701E-2,-8.670227E-2,-3.4167793E-2,2.3732784E-1,-6.1012905E-2,1.5286797E0,-1.6170373E-2,-5.9046734E-2,2.1858884E-2,2.4386661E-1,-2.9312996E-2,-7.8026645E-2,-3.4285463E-2,2.5709748E-2,-6.152789E-5,-2.371448E-2,6.979961E-1,3.0975708E-1,-5.698387E-2,2.992182E-1,8.14686E-3,1.1693448E0,-4.2545646E-2,1.1088598E-2,-7.726521E-2,-3.363115E-2,2.0036488E0,-6.6707E-3,9.5582956E-1,-3.6541022E-2,2.420197E-1,-4.7041513E-2,4.7550824E-2,1.6498641E0,-3.4169484E-2],"categories":[],"categories_nodes":[],"categories_segments":[],"categories_sizes":[],"default_left":[0,0,0,0,0,0,0,0,0,0,0,0,0,0,0,0,0,0,0,0,0,0,0,0,0,0,0,0,0,0,0,0,0,0,0,0,0,0,0,0,0,0,0,0,0,0,0,0,0,0,0,0,0,0,0,0,0,0,0,0,0,0,0,0,0,0,0,0,0,0,0,0,0,0,0,0,0,0,0,0,0,0,0,0,0,0,0,0,0,0,0,0,0,0,0,0,0,0,0],"id":4,"left_children":[1,3,5,7,9,11,13,15,17,19,21,-1,23,25,27,-1,29,31,33,35,37,39,41,43,45,47,49,51,53,55,57,59,61,63,65,67,69,71,73,-1,-1,75,77,79,-1,81,83,85,87,89,-1,91,93,95,97,-1,-1,-1,-1,-1,-1,-1,-1,-1,-1,-1,-1,-1,-1,-1,-1,-1,-1,-1,-1,-1,-1,-1,-1,-1,-1,-1,-1,-1,-1,-1,-1,-1,-1,-1,-1,-1,-1,-1,-1,-1,-1,-1,-1],"loss_changes":[2.5256797E3,5.7206433E2,1.7149069E3,5.016317E2,3.9843124E2,6.431779E2,2.0978135E3,1.5691693E3,2.3386938E2,3.9052167E2,1.5611504E3,0E0,3.9119943E2,3.3549385E3,1.8711018E3,0E0,3.8680527E2,1.6060876E2,3.1720016E2,1.0970007E3,8.900136E1,5.585762E2,5.9229345E0,1.1286454E3,4.033179E2,1.6528313E3,2.5662583E3,1.7025102E2,1.2480615E3,2.440483E0,2.0556552E2,1.6120557E2,3.527559E2,4.7171082E2,1.0427666E1,2.913509E2,2.298978E3,3.748124E1,1.9678033E2,0E0,0E0,1.5615368E-1,2.6629582E-1,3.6607877E2,0E0,5.041089E2,3.8852872E2,2.8037073E3,8.577091E0,2.6996787E3,0E0,5.5710803E2,1.6924942E2,4.2477207E0,9.4377686E2,0E0,0E0,0E0,0E0,0E0,0E0,0E0,0E0,0E0,0E0,0E0,0E0,0E0,0E0,0E0,0E0,0E0,0E0,0E0,0E0,0E0,0E0,0E0,0E0,0E0,0E0,0E0,0E0,0E0,0E0,0E0,0E0,0E0,0E0,0E0,0E0,0E0,0E0,0E0,0E0,0E0,0E0,0E0,0E0],"parents":[2147483647,0,0,1,1,2,2,3,3,4,4,5,5,6,6,7,7,8,8,9,9,10,10,12,12,13,13,14,14,16,16,17,17,18,18,19,19,20,20,21,21,22,22,23,23,24,24,25,25,26,26,27,27,28,28,29,29,30,30,31,31,32,32,33,33,34,34,35,35,36,36,37,37,38,38,41,41,42,42,43,43,45,45,46,46,47,47,48,48,49,49,51,51,52,52,53,53,54,54],"right_children":[2,4,6,8,10,12,14,16,18,20,22,-1,24,26,28,-1,30,32,34,36,38,40,42,44,46,48,50,52,54,56,58,60,62,64,66,68,70,72,74,-1,-1,76,78,80,-1,82,84,86,88,90,-1,92,94,96,98,-1,-1,-1,-1,-1,-1,-1,-1,-1,-1,-1,-1,-1,-1,-1,-1,-1,-1,-1,-1,-1,-1,-1,-1,-1,-1,-1,-1,-1,-1,-1,-1,-1,-1,-1,-1,-1,-1,-1,-1,-1,-1,-1,-1],"split_conditions":[1.5742493E0,1.7650003E0,2.7896228E-1,-2.0278437E0,1.434245E0,-1.1835376E0,1.0121202E-1,-7.9371774E-1,2.9834528E0,-7.4534893E-1,-6.5710455E-1,9.239935E-1,-7.6351243E-1,4.4970644E-1,1.1841738E0,1.5201796E0,1.20353E0,3.0954823E0,1.0121202E-1,-8.533704E-1,9.788606E-1,1.0922307E0,7.4065953E-1,5.781567E-1,1.7650003E0,-5.145547E-1,-4.667332E-2,-1.1323577E0,8.312353E-2,-2.1729896E0,-2.5640237E0,2.4331534E0,1.0789979E0,-5.993501E-1,4.926751E-1,1.0121202E-1,-8.717046E-2,2.9834528E0,1.1094537E0,1.4631647E0,4.8187733E-2,-3.318058E-1,8.135818E-1,2.177356E0,1.1325774E0,-1.4879041E0,2.1311365E-2,-3.650092E-1,-1.0345123E0,-6.978836E-1,-5.631522E-2,-1.154993E0,2.4381232E0,-1.12865046E-1,1.2940111E0,-5.8483522E-2,-1.2048381E-1,-2.2425486E-2,8.3400023E-1,-9.096228E-2,1.5277797E-1,-4.15461E-2,3.6463222E-1,4.763507E-1,1.0137701E-2,-8.670227E-2,-3.4167793E-2,2.3732784E-1,-6.1012905E-2,1.5286797E0,-1.6170373E-2,-5.9046734E-2,2.1858884E-2,2.4386661E-1,-2.9312996E-2,-7.8026645E-2,-3.4285463E-2,2.5709748E-2,-6.152789E-5,-2.371448E-2,6.979961E-1,3.0975708E-1,-5.698387E-2,2.992182E-1,8.14686E-3,1.1693448E0,-4.2545646E-2,1.1088598E-2,-7.726521E-2,-3.363115E-2,2.0036488E0,-6.6707E-3,9.5582956E-1,-3.6541022E-2,2.420197E-1,-4.7041513E-2,4.7550824E-2,1.6498641E0,-3.4169484E-2],"split_indices":[13,12,11,2,6,7,21,10,14,8,10,0,10,18,10,0,9,16,21,8,8,2,2,5,12,5,10,8,5,2,2,18,7,10,18,21,11,14,8,0,0,5,2,21,0,18,5,6,8,10,0,8,15,2,5,0,0,0,0,0,0,0,0,0,0,0,0,0,0,0,0,0,0,0,0,0,0,0,0,0,0,0,0,0,0,0,0,0,0,0,0,0,0,0,0,0,0,0,0],"split_type":[0,0,0,0,0,0,0,0,0,0,0,0,0,0,0,0,0,0,0,0,0,0,0,0,0,0,0,0,0,0,0,0,0,0,0,0,0,0,0,0,0,0,0,0,0,0,0,0,0,0,0,0,0,0,0,0,0,0,0,0,0,0,0,0,0,0,0,0,0,0,0,0,0,0,0,0,0,0,0,0,0,0,0,0,0,0,0,0,0,0,0,0,0,0,0,0,0,0,0],"sum_hessian":[1.271E3,9.21E2,3.5E2,7.04E2,2.17E2,2.23E2,1.27E2,1.6E1,6.88E2,2.04E2,1.3E1,1E0,2.22E2,4.9E1,7.8E1,1E0,1.5E1,6.22E2,6.6E1,5E1,1.54E2,3E0,1E1,1.7E1,2.05E2,3.7E1,1.2E1,7.1E1,7E0,1.3E1,2E0,5.69E2,5.3E1,2.4E1,4.2E1,4.1E1,9E0,1.22E2,3.2E1,2E0,1E0,7E0,3E0,1.5E1,2E0,1.59E2,4.6E1,1.8E1,1.9E1,9E0,3E0,7E0,6.4E1,3E0,4E0,9E0,4E0,1E0,1E0,5.63E2,6E0,4.8E1,5E0,7E0,1.7E1,2.3E1,1.9E1,1E1,3.1E1,3E0,6E0,1.06E2,1.6E1,8E0,2.4E1,4E0,3E0,1E0,2E0,1.4E1,1E0,9E0,1.5E2,1.9E1,2.7E1,9E0,9E0,3E0,1.6E1,2E0,7E0,6E0,1E0,5.9E1,5E0,1E0,2E0,3E0,1E0],"tree_param":{"num_deleted":"0","num_feature":"26","num_nodes":"99","size_leaf_vector":"1"}},{"base_weights":[-8.215291E-2,-8.1233954E-1,2.6069176E0,-1.7114631E0,1.1885062E-1,8.125263E-1,4.9136324E0,-1.7755396E0,5.230712E0,7.155798E0,-3.872107E-2,5.065569E-2,4.8331766E0,1.0792344E1,2.8569987E0,5.8075924E0,-1.831315E0,-6.059375E-2,7.750265E-1,-5.84761E-2,1.4873246E0,3.4470334E0,-3.132253E-1,7.854016E0,-3.1552258E-1,5.903532E-1,1.3775383E1,4.2379637E0,2.6343277E1,1.5126394E1,2.266833E0,7.178691E-1,-9.1406554E-2,-2.248225E-1,-2.0936847E0,1.8239784E1,-1.195097E-1,-7.823419E-1,1.2099602E0,1.2084208E0,-2.4254684E-1,-4.9960926E-1,7.5212927E0,-2.2500242E-1,1.0167812E0,1.7297181E0,1.069997E0,1.5864077E1,1.7008429E0,2.350863E0,4.00642E-1,1.54273E0,-4.0120634E-1,6.7254586E0,1.0242513E0,5.3196156E-1,-6.782587E-2,-1.2158334E-1,-4.6011418E-2,-3.1557452E-2,1.6275387E0,-1.8061696E-2,4.537964E-2,-6.0777087E-2,6.6585824E-2,1.4210433E0,3.450186E-2,-5.4401655E-2,3.4189414E-2,6.018572E-2,-3.365015E-2,5.888893E-1,-2.4792362E-2,3.4045935E-2,-3.6177732E-2,-6.0269836E-4,5.557037E-2,1.37258535E-2,5.870948E-2,-2.3183966E-2,1.0730611E0,5.807364E-1,2.8387899E-2,-3.069242E-5,3.3417527E-2,-5.7170154E-3,-2.437346E-2,1.1194425E-2,6.962275E-1,3.161235E-2,4.784132E-1],"categories":[],"categories_nodes":[],"categories_segments":[],"categories_sizes":[],"default_left":[0,0,0,0,0,0,0,0,0,0,0,0,0,0,0,0,0,0,0,0,0,0,0,0,0,0,0,0,0,0,0,0,0,0,0,0,0,0,0,0,0,0,0,0,0,0,0,0,0,0,0,0,0,0,0,0,0,0,0,0,0,0,0,0,0,0,0,0,0,0,0,0,0,0,0,0,0,0,0,0,0,0,0,0,0,0,0,0,0,0,0],"id":5,"left_children":[1,3,5,7,9,11,13,15,17,19,21,23,25,27,29,31,33,-1,-1,-1,-1,35,37,39,41,43,45,47,49,51,53,-1,-1,55,57,59,61,63,65,-1,67,69,71,73,75,-1,77,79,81,-1,83,-1,85,87,89,-1,-1,-1,-1,-1,-1,-1,-1,-1,-1,-1,-1,-1,-1,-1,-1,-1,-1,-1,-1,-1,-1,-1,-1,-1,-1,-1,-1,-1,-1,-1,-1,-1,-1,-1,-1],"loss_changes":[2.546844E3,8.542034E2,1.1425518E3,2.4015442E2,5.569065E2,4.8068E2,1.4320996E3,2.2845581E2,3.496057E2,2.1036116E3,4.7185202E2,3.825151E2,9.403727E2,3.0480864E3,6.2463995E2,2.873825E2,2.153346E2,0E0,0E0,0E0,0E0,1.9015032E3,3.274967E2,7.984054E2,1.8841734E2,6.487207E0,2.0790894E3,6.514454E2,4.8082E3,9.892642E2,4.8064963E2,0E0,0E0,9.1195215E2,1.7226965E2,1.9109761E3,7.7761197E0,3.2215222E2,1.5083269E3,0E0,4.6600018E0,3.8023647E1,1.0821469E2,3.6542242E0,1.181654E0,0E0,1.7496347E-1,3.7550635E2,2.180711E2,0E0,5.375083E-1,0E0,1.8500298E-2,8.861849E2,2.2840076E2,0E0,0E0,0E0,0E0,0E0,0E0,0E0,0E0,0E0,0E0,0E0,0E0,0E0,0E0,0E0,0E0,0E0,0E0,0E0,0E0,0E0,0E0,0E0,0E0,0E0,0E0,0E0,0E0,0E0,0E0,0E0,0E0,0E0,0E0,0E0,0E0],"parents":[2147483647,0,0,1,1,2,2,3,3,4,4,5,5,6,6,7,7,8,8,9,9,10,10,11,11,12,12,13,13,14,14,15,15,16,16,21,21,22,22,23,23,24,24,25,25,26,26,27,27,28,28,29,29,30,30,33,33,34,34,35,35,36,36,37,37,38,38,40,40,41,41,42,42,43,43,44,44,46,46,47,47,48,48,50,50,52,52,53,53,54,54],"right_children":[2,4,6,8,10,12,14,16,18,20,22,24,26,28,30,32,34,-1,-1,-1,-1,36,38,40,42,44,46,48,50,52,54,-1,-1,56,58,60,62,64,66,-1,68,70,72,74,76,-1,78,80,82,-1,84,-1,86,88,90,-1,-1,-1,-1,-1,-1,-1,-1,-1,-1,-1,-1,-1,-1,-1,-1,-1,-1,-1,-1,-1,-1,-1,-1,-1,-1,-1,-1,-1,-1,-1,-1,-1,-1,-1,-1],"split_conditions":[1.3447617E0,1.547071E-1,2.0953219E-1,2.607153E0,-2.0278437E0,2.5348163E0,-7.151555E-1,-2.235126E0,-1.7233218E0,6.495843E-1,-1.5534025E0,-2.0025382E0,6.3400084E-1,2.9576525E-1,-4.085842E-1,8.384643E-2,-1.0979419E0,-6.059375E-2,7.750265E-1,-5.84761E-2,1.4873246E0,-1.2356827E0,7.115424E-1,-3.835203E-1,1.9483925E0,-3.24869E-1,1.0440291E0,3.8105726E-1,-2.1522957E-1,-8.2376736E-1,-1.0107414E0,7.178691E-1,-9.1406554E-2,-1.4778576E0,8.9230824E-1,1.706801E-1,5.9165055E-1,1.0256993E0,7.2381544E-1,1.2084208E0,5.7672906E-1,-1.418615E0,-1.1198835E0,-1.1270223E0,-1.7860963E0,1.7297181E0,-5.7823616E-1,-9.4217646E-1,-7.737596E-1,2.350863E0,2.3368284E-1,1.54273E0,-2.765319E-2,9.0512335E-1,1.9796671E0,5.3196156E-1,-6.782587E-2,-1.2158334E-1,-4.6011418E-2,-3.1557452E-2,1.6275387E0,-1.8061696E-2,4.537964E-2,-6.0777087E-2,6.6585824E-2,1.4210433E0,3.450186E-2,-5.4401655E-2,3.4189414E-2,6.018572E-2,-3.365015E-2,5.888893E-1,-2.4792362E-2,3.4045935E-2,-3.6177732E-2,-6.0269836E-4,5.557037E-2,1.37258535E-2,5.870948E-2,-2.3183966E-2,1.0730611E0,5.807364E-1,2.8387899E-2,-3.069242E-5,3.3417527E-2,-5.7170154E-3,-2.437346E-2,1.1194425E-2,6.962275E-1,3.161235E-2,4.784132E-1],"split_indices":[19,19,18,18,2,19,4,6,3,4,4,6,3,11,2,1,4,0,0,0,0,1,3,3,8,9,3,18,8,1,9,0,0,1,4,3,3,1,3,0,3,4,1,2,1,0,1,1,10,0,1,0,1,2,9,0,0,0,0,0,0,0,0,0,0,0,0,0,0,0,0,0,0,0,0,0,0,0,0,0,0,0,0,0,0,0,0,0,0,0,0],"split_type":[0,0,0,0,0,0,0,0,0,0,0,0,0,0,0,0,0,0,0,0,0,0,0,0,0,0,0,0,0,0,0,0,0,0,0,0,0,0,0,0,0,0,0,0,0,0,0,0,0,0,0,0,0,0,0,0,0,0,0,0,0,0,0,0,0,0,0,0,0,0,0,0,0,0,0,0,0,0,0,0,0,0,0,0,0,0,0,0,0,0,0],"sum_hessian":[1.295E3,1.019E3,2.76E2,5.18E2,5.01E2,1.56E2,1.2E2,5.14E2,4E0,1E1,4.91E2,1.32E2,2.4E1,3E1,9E1,3E0,5.11E2,3E0,1E0,8E0,2E0,3.5E1,4.56E2,5E0,1.27E2,1.7E1,7E0,2.2E1,8E0,3E0,8.7E1,1E0,2E0,7.2E1,4.39E2,6E0,2.9E1,3.49E2,1.07E2,1E0,4E0,1.25E2,2E0,6E0,1.1E1,2E0,5E0,3E0,1.9E1,4E0,4E0,1E0,2E0,1.8E1,6.9E1,6E0,6.6E1,3.4E2,9.9E1,3E0,3E0,2.4E1,5E0,2.9E2,5.9E1,1E0,1.06E2,2E0,2E0,1.1E1,1.14E2,1E0,1E0,2E0,4E0,1E0,1E1,1E0,4E0,1E0,2E0,1E0,1.8E1,2E0,2E0,1E0,1E0,1E1,8E0,6.7E1,2E0],"tree_param":{"num_deleted":"0","num_feature":"26","num_nodes":"91","size_leaf_vector":"1"}},{"base_weights":[1.8378342E-2,-4.8486146E-1,1.6330174E0,5.3728485E0,-6.4568305E-1,1.3223498E0,1.6738894E1,1.6814508E1,2.7252555E-1,1.2754245E0,-1.0131013E0,1.8701536E1,1.1411297E0,-8.77826E-1,1.732411E0,3.8136666E0,1.8605679E0,8.1461203E-1,-1.522583E0,1.0503096E1,-4.5123854E-1,-1.1096138E0,4.066655E0,-1.7131091E-3,1.4043283E0,2.7879279E0,2.1638381E-1,-5.809026E-2,-6.472111E-4,-5.58315E-2,7.1162874E-1,-8.2636976E-1,-1.8905034E0,2.1619795E1,1.0183244E0,-8.5670215E-1,1.68638E1,-1.8104709E0,-6.692664E-1,8.060499E-2,1.9983988E1,9.299381E0,8.7150854E-1,-4.4156197E-2,8.213637E0,-4.6157762E-2,-3.7217855E-3,-1.552887E-2,-1.0087191E-1,-7.43456E-2,1.7518023E0,-5.18771E-2,6.9361466E-1,-5.5426925E-2,2.7549067E-1,1.2603935E0,4.391408E-3,3.6970532E-1,-9.641712E-2,2.4503814E-1,-4.0517807E-2,8.2433514E-2,-1.7718844E-2,7.654653E-2,1.4222525E0,-1.3692039E-2,1.2642589E0,1.7416485E-2,3.763791E-1,-2.7935237E-2,2.000414E-1,1.4042658E0,-6.888809E-2],"categories":[],"categories_nodes":[],"categories_segments":[],"categories_sizes":[],"default_left":[0,0,0,0,0,0,0,0,0,0,0,0,0,0,0,0,0,0,0,0,0,0,0,0,0,0,0,0,0,0,0,0,0,0,0,0,0,0,0,0,0,0,0,0,0,0,0,0,0,0,0,0,0,0,0,0,0,0,0,0,0,0,0,0,0,0,0,0,0,0,0,0,0],"id":6,"left_children":[1,3,5,7,9,11,13,15,17,19,21,23,25,27,-1,29,-1,-1,31,33,35,37,39,-1,-1,41,43,-1,-1,-1,-1,45,47,49,51,53,55,57,59,61,63,65,67,69,71,-1,-1,-1,-1,-1,-1,-1,-1,-1,-1,-1,-1,-1,-1,-1,-1,-1,-1,-1,-1,-1,-1,-1,-1,-1,-1,-1,-1],"loss_changes":[1.0327311E3,9.16312E2,1.3951228E3,1.512678E3,6.676145E2,9.140478E2,1.9234364E3,1.979498E3,5.711917E2,2.4265674E3,3.932887E2,5.2847034E2,4.486434E2,9.6739507E-1,0E0,3.2410236E2,0E0,0E0,3.048462E0,2.508528E3,9.201069E2,2.3920374E2,9.500986E2,0E0,0E0,1.314635E3,3.9624753E2,0E0,0E0,0E0,0E0,5.134945E-1,1.5794563E0,3.4621548E3,3.8435767E2,2.097295E2,4.1772565E2,3.397456E2,3.8119086E2,9.451289E0,4.2484998E2,3.6797776E3,2.8641022E2,3.8728326E2,1.1822781E3,0E0,0E0,0E0,0E0,0E0,0E0,0E0,0E0,0E0,0E0,0E0,0E0,0E0,0E0,0E0,0E0,0E0,0E0,0E0,0E0,0E0,0E0,0E0,0E0,0E0,0E0,0E0,0E0],"parents":[2147483647,0,0,1,1,2,2,3,3,4,4,5,5,6,6,7,7,8,8,9,9,10,10,11,11,12,12,13,13,15,15,18,18,19,19,20,20,21,21,22,22,25,25,26,26,31,31,32,32,33,33,34,34,35,35,36,36,37,37,38,38,39,39,40,40,41,41,42,42,43,43,44,44],"right_children":[2,4,6,8,10,12,14,16,18,20,22,24,26,28,-1,30,-1,-1,32,34,36,38,40,-1,-1,42,44,-1,-1,-1,-1,46,48,50,52,54,56,58,60,62,64,66,68,70,72,-1,-1,-1,-1,-1,-1,-1,-1,-1,-1,-1,-1,-1,-1,-1,-1,-1,-1,-1,-1,-1,-1,-1,-1,-1,-1,-1,-1],"split_conditions":[1.7650003E0,-2.0278437E0,2.2361424E0,-9.52598E-1,-1.0103881E0,-2.4882483E0,-2.6740873E-1,-1.2081558E0,-1.2934058E0,-1.0329037E0,2.095692E0,-1.0040985E0,-4.2194584E-1,-7.966564E-2,1.732411E0,1.0862327E0,1.8605679E0,8.1461203E-1,-6.607015E-1,-3.1627762E-1,-1.0188841E0,-3.679469E-1,1.7007363E0,-1.7131091E-3,1.4043283E0,-7.151555E-1,1.9014229E0,-5.809026E-2,-6.472111E-4,-5.58315E-2,7.1162874E-1,1.5996664E0,-2.5640237E0,-1.2288779E0,-1.1381588E0,1.9698613E0,4.4243753E-1,-6.6989124E-1,-2.0025382E0,-1.1198214E0,-9.4623715E-1,-1.0188841E0,1.6827093E0,1.0881386E0,-1.6405745E0,-4.6157762E-2,-3.7217855E-3,-1.552887E-2,-1.0087191E-1,-7.43456E-2,1.7518023E0,-5.18771E-2,6.9361466E-1,-5.5426925E-2,2.7549067E-1,1.2603935E0,4.391408E-3,3.6970532E-1,-9.641712E-2,2.4503814E-1,-4.0517807E-2,8.2433514E-2,-1.7718844E-2,7.654653E-2,1.4222525E0,-1.3692039E-2,1.2642589E0,1.7416485E-2,3.763791E-1,-2.7935237E-2,2.000414E-1,1.4042658E0,-6.888809E-2],"split_indices":[12,2,0,1,4,5,3,1,0,1,4,0,8,1,0,4,0,0,9,18,4,9,8,0,0,4,11,0,0,0,0,0,2,2,1,1,0,20,6,0,0,4,1,1,0,0,0,0,0,0,0,0,0,0,0,0,0,0,0,0,0,0,0,0,0,0,0,0,0,0,0,0,0],"split_type":[0,0,0,0,0,0,0,0,0,0,0,0,0,0,0,0,0,0,0,0,0,0,0,0,0,0,0,0,0,0,0,0,0,0,0,0,0,0,0,0,0,0,0,0,0,0,0,0,0,0,0,0,0,0,0,0,0,0,0,0,0,0,0,0,0,0,0,0,0,0,0,0,0],"sum_hessian":[1.269E3,9.68E2,3.01E2,2.5E1,9.43E2,2.96E2,5E0,7E0,1.8E1,1.51E2,7.92E2,2E0,2.94E2,3E0,2E0,5E0,2E0,1E0,1.7E1,2.3E1,1.28E2,7.78E2,1.4E1,1E0,1E0,1.05E2,1.89E2,2E0,1E0,4E0,1E0,7E0,1E1,1E1,1.3E1,1.26E2,2E0,2.99E2,4.79E2,1.2E1,2E0,2.3E1,8.2E1,1.84E2,5E0,6E0,1E0,1E0,9E0,4E0,6E0,1.2E1,1E0,1.22E2,4E0,1E0,1E0,3E0,2.96E2,1.1E1,4.68E2,2E0,1E1,1E0,1E0,1.5E1,8E0,7.7E1,5E0,1.64E2,2E1,1E0,4E0],"tree_param":{"num_deleted":"0","num_feature":"26","num_nodes":"73","size_leaf_vector":"1"}},{"base_weights":[2.035562E-1,-4.765011E-1,2.702148E0,-5.924838E-1,5.929022E0,1.2993459E0,2.5216656E0,-1.4266313E0,2.4117641E-1,1.2048161E1,-1.711053E-1,2.3049307E0,2.1259483E1,9.0673107E-1,-1.9125887E0,-2.4393655E-1,2.4322853E0,3.6017249E0,1.3870229E0,-7.776128E-1,4.665296E-2,3.683328E0,4.0307608E-1,-6.3102244E-4,1.5950922E0,1.636676E1,3.4379274E-1,2.5348596E-2,-2.2192266E0,6.000492E0,-4.4883183E-1,2.4235518E1,1.4018805E0,1.472009E-1,6.082217E-1,1.6248465E-3,-9.1804725E-1,1.3692201E0,3.3558571E0,1.6476744E-1,5.6129127E0,-3.139012E-2,1.2588972E0,-5.4671066E-3,9.488497E-1,-5.0709225E-2,4.5152053E-1,2.832547E-1,-1.15137696E-1,-4.3647133E-2,1.0841979E0,-2.8301647E-2,3.0641606E-1,1.5810437E0,5.1986147E-2,3.5166276E-1,-8.45525E-3,-1.4171696E-2,3.3615686E-2,-2.4131298E-2,-5.962966E-2,1.1525191E-1,4.3849728E-1,-9.854041E-3,1.7361067E-1,5.765775E-1,6.25183E-2],"categories":[],"categories_nodes":[],"categories_segments":[],"categories_sizes":[],"default_left":[0,0,0,0,0,0,0,0,0,0,0,0,0,0,0,0,0,0,0,0,0,0,0,0,0,0,0,0,0,0,0,0,0,0,0,0,0,0,0,0,0,0,0,0,0,0,0,0,0,0,0,0,0,0,0,0,0,0,0,0,0,0,0,0,0,0,0],"id":7,"left_children":[1,3,5,7,9,-1,11,13,15,17,19,21,23,25,27,29,31,33,-1,35,-1,37,39,-1,-1,41,43,45,47,49,51,53,55,57,-1,-1,59,-1,61,63,65,-1,-1,-1,-1,-1,-1,-1,-1,-1,-1,-1,-1,-1,-1,-1,-1,-1,-1,-1,-1,-1,-1,-1,-1,-1,-1],"loss_changes":[2.176245E3,7.5164343E2,1.0859517E3,6.8878564E2,6.739568E2,0E0,1.0596886E3,5.63022E2,5.2780927E2,1.0929823E3,7.4223995E0,7.0894495E2,6.7955884E2,7.4283496E2,2.4369678E2,5.2343097E2,1.9879786E3,2.0526999E2,0E0,8.262048E-1,0E0,1.1266438E3,1.4185332E2,0E0,0E0,4.650335E2,7.1131665E2,5.4273895E2,2.4617395E2,1.4203193E3,3.0795447E2,6.5235986E2,7.7086163E2,1.5473475E0,0E0,0E0,1.4168262E-1,0E0,8.6730396E2,1.3352841E2,1.14683E2,0E0,0E0,0E0,0E0,0E0,0E0,0E0,0E0,0E0,0E0,0E0,0E0,0E0,0E0,0E0,0E0,0E0,0E0,0E0,0E0,0E0,0E0,0E0,0E0,0E0,0E0],"parents":[2147483647,0,0,1,1,2,2,3,3,4,4,6,6,7,7,8,8,9,9,10,10,11,11,12,12,13,13,14,14,15,15,16,16,17,17,19,19,21,21,22,22,25,25,26,26,27,27,28,28,29,29,30,30,31,31,32,32,33,33,36,36,38,38,39,39,40,40],"right_children":[2,4,6,8,10,-1,12,14,16,18,20,22,24,26,28,30,32,34,-1,36,-1,38,40,-1,-1,42,44,46,48,50,52,54,56,58,-1,-1,60,-1,62,64,66,-1,-1,-1,-1,-1,-1,-1,-1,-1,-1,-1,-1,-1,-1,-1,-1,-1,-1,-1,-1,-1,-1,-1,-1,-1,-1],"split_conditions":[1.3447617E0,2.095692E0,-2.5640237E0,1.547071E-1,-1.9173568E-1,1.2993459E0,2.1782808E0,-9.089779E-1,9.4666165E-1,-4.4463265E-1,1.0682058E0,-1.7867795E-1,-1.4759855E0,-7.9371774E-1,-1.0515057E0,-1.901237E0,9.652638E-1,1.5313031E-1,1.3870229E0,-5.71117E-1,4.665296E-2,-2.4882483E0,1.9483925E0,-6.3102244E-4,1.5950922E0,1.5313031E-1,1.2884831E0,-1.1479917E0,-2.235126E0,1.669698E-1,3.7249672E0,-4.2548412E-1,-7.5344557E-1,-5.41207E-1,6.082217E-1,1.6248465E-3,6.9609255E-1,1.3692201E0,-2.775866E-1,1.3932691E0,-1.1270223E0,-3.139012E-2,1.2588972E0,-5.4671066E-3,9.488497E-1,-5.0709225E-2,4.5152053E-1,2.832547E-1,-1.15137696E-1,-4.3647133E-2,1.0841979E0,-2.8301647E-2,3.0641606E-1,1.5810437E0,5.1986147E-2,3.5166276E-1,-8.45525E-3,-1.4171696E-2,3.3615686E-2,-2.4131298E-2,-5.962966E-2,1.1525191E-1,4.3849728E-1,-9.854041E-3,1.7361067E-1,5.765775E-1,6.25183E-2],"split_indices":[19,4,2,19,3,0,0,4,3,3,17,7,2,10,3,2,3,0,0,2,0,5,8,0,0,0,6,3,6,5,7,0,8,0,0,0,3,0,7,4,2,0,0,0,0,0,0,0,0,0,0,0,0,0,0,0,0,0,0,0,0,0,0,0,0,0,0],"split_type":[0,0,0,0,0,0,0,0,0,0,0,0,0,0,0,0,0,0,0,0,0,0,0,0,0,0,0,0,0,0,0,0,0,0,0,0,0,0,0,0,0,0,0,0,0,0,0,0,0,0,0,0,0,0,0,0,0,0,0,0,0,0,0,0,0,0,0],"sum_hessian":[1.279E3,1.006E3,2.73E2,9.89E2,1.7E1,1E0,2.72E2,4.94E2,4.95E2,8E0,9E0,2.7E2,2E0,8.5E1,4.09E2,4.06E2,8.9E1,6E0,2E0,6E0,3E0,1.56E2,1.14E2,1E0,1E0,2E0,8.3E1,5.6E1,3.53E2,1.2E1,3.94E2,3E0,8.6E1,5E0,1E0,1E0,5E0,1E0,1.55E2,1.1E2,4E0,1E0,1E0,8.2E1,1E0,5.1E1,5E0,3E0,3.5E2,9E0,3E0,3.88E2,6E0,2E0,1E0,1.8E1,6.8E1,3E0,2E0,3E0,2E0,1.31E2,2.4E1,1E2,1E1,1E0,3E0],"tree_param":{"num_deleted":"0","num_feature":"26","num_nodes":"67","size_leaf_vector":"1"}},{"base_weights":[2.1757275E-1,-2.9184324E-1,1.7515442E0,1.4054332E0,-6.9986594E-1,1.4723682E0,1.8933487E1,1.5408318E1,7.717544E-1,5.7468667E0,-8.3502144E-1,4.4004827E0,5.830099E-1,-8.7407523E-1,1.6214943E0,-1.0748588E-1,2.6373081E1,5.0165784E-1,1.2212234E0,1.5639327E1,-1.752542E0,-1.2458292E0,5.0075257E-1,-1.3640202E0,8.230815E0,4.71568E0,-3.3367607E-1,-6.1523914E-4,-6.494041E-2,1.6633362E0,-3.0037094E-2,1.0218569E1,1.0328557E-1,-6.07949E-1,1.3988385E0,-2.3323981E-2,-1.0078738E-1,-1.5743963E0,6.090501E-1,2.903807E-1,9.4867367E-1,2.943236E-1,-1.4929849E0,4.8234553E0,2.2960999E1,1.3723593E1,9.088507E-1,-4.830398E-1,3.2927628E0,-4.4873174E-2,1.2669549E0,7.545991E-1,-3.6312414E-3,1.3871336E-2,-4.9777493E-2,-9.707023E-2,-3.1287316E-2,1.0927935E0,-6.9599985E-3,-5.630797E-2,1.06044784E-1,2.2850966E-2,-7.766962E-4,-9.683969E-2,-5.1953938E-2,9.183724E-2,9.974335E-1,1.5413119E0,-2.1157186E-2,1.8659216E0,3.0205187E-1,-1.0584182E-2,8.911354E-1,2.743937E-2,-4.838491E-2,-1.9098438E-2,7.253971E-1],"categories":[],"categories_nodes":[],"categories_segments":[],"categories_sizes":[],"default_left":[0,0,0,0,0,0,0,0,0,0,0,0,0,0,0,0,0,0,0,0,0,0,0,0,0,0,0,0,0,0,0,0,0,0,0,0,0,0,0,0,0,0,0,0,0,0,0,0,0,0,0,0,0,0,0,0,0,0,0,0,0,0,0,0,0,0,0,0,0,0,0,0,0,0,0,0,0],"id":8,"left_children":[1,3,5,7,9,11,13,15,17,19,21,23,25,27,-1,-1,29,31,-1,33,35,37,39,41,43,45,47,-1,-1,-1,-1,49,51,53,-1,-1,-1,55,57,59,-1,61,63,65,67,69,71,73,75,-1,-1,-1,-1,-1,-1,-1,-1,-1,-1,-1,-1,-1,-1,-1,-1,-1,-1,-1,-1,-1,-1,-1,-1,-1,-1,-1,-1],"loss_changes":[9.9683386E2,6.644248E2,1.4975007E3,1.6385481E3,6.7832227E2,8.1513544E2,1.365E3,1.5968524E3,1.1312914E3,1.2144102E3,4.1657367E2,1.6230642E3,9.183568E2,1.0820851E0,0E0,0E0,9.497241E2,6.879733E2,0E0,1.4201575E3,2.444683E0,3.5444116E2,6.901097E2,6.8554573E0,2.0976536E3,1.4963574E3,1.0938057E2,0E0,0E0,0E0,0E0,1.199303E3,4.5460287E2,1.6488816E0,0E0,0E0,0E0,1.7042932E2,1.4020605E3,4.6394208E2,0E0,1.5833682E-1,3.6280556E0,1.634821E3,1.484419E3,2.13105E3,6.1025464E2,9.6547134E1,3.3524377E2,0E0,0E0,0E0,0E0,0E0,0E0,0E0,0E0,0E0,0E0,0E0,0E0,0E0,0E0,0E0,0E0,0E0,0E0,0E0,0E0,0E0,0E0,0E0,0E0,0E0,0E0,0E0,0E0],"parents":[2147483647,0,0,1,1,2,2,3,3,4,4,5,5,6,6,7,7,8,8,9,9,10,10,11,11,12,12,13,13,16,16,17,17,19,19,20,20,21,21,22,22,23,23,24,24,25,25,26,26,31,31,32,32,33,33,37,37,38,38,39,39,41,41,42,42,43,43,44,44,45,45,46,46,47,47,48,48],"right_children":[2,4,6,8,10,12,14,16,18,20,22,24,26,28,-1,-1,30,32,-1,34,36,38,40,42,44,46,48,-1,-1,-1,-1,50,52,54,-1,-1,-1,56,58,60,-1,62,64,66,68,70,72,74,76,-1,-1,-1,-1,-1,-1,-1,-1,-1,-1,-1,-1,-1,-1,-1,-1,-1,-1,-1,-1,-1,-1,-1,-1,-1,-1,-1,-1],"split_conditions":[1.7650003E0,-9.089779E-1,2.2361424E0,-9.3685997E-1,-2.0278437E0,-7.1479136E-1,-2.6740873E-1,1.706801E-1,2.971475E0,-3.0426216E-1,8.9230824E-1,-4.9654272E-1,-1.0281954E0,-1.4759855E0,1.6214943E0,-1.0748588E-1,-3.9031675E-1,-7.6882356E-1,1.2212234E0,-7.710046E-1,-1.0107414E0,9.4666165E-1,2.4998615E0,-9.3685997E-1,9.877374E-1,-7.151555E-1,1.7989378E0,-6.1523914E-4,-6.494041E-2,1.6633362E0,-3.0037094E-2,-1.0979419E0,-1.147336E0,-3.0976123E-1,1.3988385E0,-2.3323981E-2,-1.0078738E-1,7.2322255E-1,9.652638E-1,1.04676224E-1,9.4867367E-1,-1.582713E0,-4.0096483E-1,-7.726528E-1,-5.145547E-1,-1.6741391E0,1.7064521E0,1.0121202E-1,-1.1490911E-1,-4.4873174E-2,1.2669549E0,7.545991E-1,-3.6312414E-3,1.3871336E-2,-4.9777493E-2,-9.707023E-2,-3.1287316E-2,1.0927935E0,-6.9599985E-3,-5.630797E-2,1.06044784E-1,2.2850966E-2,-7.766962E-4,-9.683969E-2,-5.1953938E-2,9.183724E-2,9.974335E-1,1.5413119E0,-2.1157186E-2,1.8659216E0,3.0205187E-1,-1.0584182E-2,8.911354E-1,2.743937E-2,-4.838491E-2,-1.9098438E-2,7.253971E-1],"split_indices":[12,4,0,21,2,0,3,3,7,7,4,17,3,2,0,0,2,10,0,3,9,3,5,21,9,4,9,0,0,0,0,4,7,0,0,0,0,18,3,18,0,0,7,0,5,5,5,21,5,0,0,0,0,0,0,0,0,0,0,0,0,0,0,0,0,0,0,0,0,0,0,0,0,0,0,0,0],"split_type":[0,0,0,0,0,0,0,0,0,0,0,0,0,0,0,0,0,0,0,0,0,0,0,0,0,0,0,0,0,0,0,0,0,0,0,0,0,0,0,0,0,0,0,0,0,0,0,0,0,0,0,0,0,0,0,0,0,0,0,0,0,0,0,0,0,0,0,0,0,0,0,0,0,0,0,0,0],"sum_hessian":[1.274E3,9.57E2,3.17E2,1.85E2,7.72E2,3.13E2,4E0,7E0,1.78E2,1.5E1,7.57E2,7.2E1,2.41E2,2E0,2E0,3E0,4E0,1.77E2,1E0,6E0,9E0,5.79E2,1.78E2,2.9E1,4.3E1,4.3E1,1.98E2,1E0,1E0,3E0,1E0,6E0,1.71E2,3E0,3E0,2E0,7E0,4.92E2,8.7E1,1.77E2,1E0,2E0,2.7E1,3.6E1,7E0,1.2E1,3.1E1,1.91E2,7E0,4E0,2E0,1E0,1.7E2,1E0,2E0,3.54E2,1.38E2,2E0,8.5E1,1E2,7.7E1,1E0,1E0,1.2E1,1.5E1,3.1E1,5E0,5E0,2E0,2E0,1E1,3E1,1E0,6.1E1,1.3E2,6E0,1E0],"tree_param":{"num_deleted":"0","num_feature":"26","num_nodes":"77","size_leaf_vector":"1"}},{"base_weights":[2.2972547E-2,-5.5850875E-1,2.2750058E0,-1.3058841E0,1.9593437E-1,2.901278E-1,3.5545466E0,5.5878204E-1,-1.6316584E0,1.2914015E0,-4.9246874E-1,4.6921563E0,-3.4192163E-1,2.1177833E0,8.364751E0,-7.9408836E-1,7.8402653E0,-1.7070761E0,3.9949338E0,9.166789E-1,8.8921795E0,-1.0427347E0,2.521326E0,8.599132E-1,2.2167923E0,-7.2953767E-1,4.4136906E0,1.3142549E0,1.3504222E1,1.770572E1,2.9565272E0,7.3573416E-1,-1.2663298E0,2.1714188E1,-9.054847E-2,-1.7788486E0,4.6919527E0,-1.3028666E-1,9.2495674E-1,3.0160537E-1,7.013492E0,1.3070624E0,2.2941113E-1,-1.2248354E0,1.1008969E1,-5.6651616E-1,8.732418E0,4.7343436E-1,5.3484327E-1,1.0539039E0,-8.541766E-1,6.742735E-1,6.5414906E-1,1.1430012E1,9.445445E-1,9.438722E-1,2.0851658E1,2.891671E1,-1.9322014E-1,1.7704393E1,6.6228593E-3,2.4681368E-1,-8.261492E-2,1.4010305E0,-8.77878E-2,-9.2148416E-2,1.9686583E-1,7.587137E-1,-8.610981E-2,1.5310608E-1,-6.557442E-2,9.709546E-2,1.5016788E0,2.9259954E-2,-4.763291E-2,2.021687E-1,-6.722296E-2,-5.9863873E-2,1.1906928E0,-3.697547E-2,1.6760254E-2,1.6193494E0,3.911824E-2,3.3157587E-3,3.0890733E-2,9.14743E-3,5.957526E-2,-5.1176365E-2,2.1681543E-2,4.18594E-2,-6.5261363E-3,1.1386344E0,2.9111705E-3,3.5019215E-2,7.072622E-1,-1.2674165E-2,7.137426E-2,1.305696E0,-4.9348357E-3,1.6950927E-3,1.9269332E0,-3.511261E-2,2.7494797E-2,1.1839552E0,-5.4933787E-3,-1.5411104E-2,5.3788554E-2],"categories":[],"categories_nodes":[],"categories_segments":[],"categories_sizes":[],"default_left":[0,0,0,0,0,0,0,0,0,0,0,0,0,0,0,0,0,0,0,0,0,0,0,0,0,0,0,0,0,0,0,0,0,0,0,0,0,0,0,0,0,0,0,0,0,0,0,0,0,0,0,0,0,0,0,0,0,0,0,0,0,0,0,0,0,0,0,0,0,0,0,0,0,0,0,0,0,0,0,0,0,0,0,0,0,0,0,0,0,0,0,0,0,0,0,0,0,0,0,0,0,0,0,0,0,0,0],"id":9,"left_children":[1,3,5,7,9,11,13,15,17,19,21,23,25,27,29,31,33,35,37,39,41,43,45,-1,47,49,51,53,55,57,59,-1,61,63,-1,65,67,-1,-1,69,71,-1,73,75,77,79,81,83,-1,85,87,-1,89,91,93,95,97,99,101,103,105,-1,-1,-1,-1,-1,-1,-1,-1,-1,-1,-1,-1,-1,-1,-1,-1,-1,-1,-1,-1,-1,-1,-1,-1,-1,-1,-1,-1,-1,-1,-1,-1,-1,-1,-1,-1,-1,-1,-1,-1,-1,-1,-1,-1,-1,-1],"loss_changes":[1.6591168E3,5.68055E2,6.592992E2,3.0828668E2,3.7920572E2,2.8818124E2,1.0742428E3,7.548945E2,1.8971179E2,5.4439624E2,5.150712E2,3.6431818E2,1.7096495E2,1.1076191E3,1.7663022E3,4.9468613E2,1.6461296E3,2.0399768E2,6.226282E2,6.9538257E2,1.338825E3,5.884756E2,9.2553296E2,0E0,1.7234137E2,1.9794548E1,2.2991861E2,4.2303235E2,7.186094E2,2.6142305E3,1.0439979E3,0E0,1.6137285E2,7.8925415E2,0E0,1.6192712E2,3.6230893E2,0E0,0E0,7.610211E2,1.9263981E3,0E0,3.5014563E0,1.6865869E2,6.5371014E2,5.3956127E0,2.9835425E3,6.056094E-1,0E0,5.0108385E-1,1.789112E1,0E0,9.71025E-1,5.146202E2,3.5430154E2,2.67807E0,5.5380884E2,2.2219658E3,2.6557848E0,4.2834192E2,7.4005113E0,0E0,0E0,0E0,0E0,0E0,0E0,0E0,0E0,0E0,0E0,0E0,0E0,0E0,0E0,0E0,0E0,0E0,0E0,0E0,0E0,0E0,0E0,0E0,0E0,0E0,0E0,0E0,0E0,0E0,0E0,0E0,0E0,0E0,0E0,0E0,0E0,0E0,0E0,0E0,0E0,0E0,0E0,0E0,0E0,0E0,0E0],"parents":[2147483647,0,0,1,1,2,2,3,3,4,4,5,5,6,6,7,7,8,8,9,9,10,10,11,11,12,12,13,13,14,14,15,15,16,16,17,17,18,18,19,19,20,20,21,21,22,22,24,24,25,25,26,26,27,27,28,28,29,29,30,30,32,32,33,33,35,35,36,36,39,39,40,40,42,42,43,43,44,44,45,45,46,46,47,47,49,49,50,50,52,52,53,53,54,54,55,55,56,56,57,57,58,58,59,59,60,60],"right_children":[2,4,6,8,10,12,14,16,18,20,22,24,26,28,30,32,34,36,38,40,42,44,46,-1,48,50,52,54,56,58,60,-1,62,64,-1,66,68,-1,-1,70,72,-1,74,76,78,80,82,84,-1,86,88,-1,90,92,94,96,98,100,102,104,106,-1,-1,-1,-1,-1,-1,-1,-1,-1,-1,-1,-1,-1,-1,-1,-1,-1,-1,-1,-1,-1,-1,-1,-1,-1,-1,-1,-1,-1,-1,-1,-1,-1,-1,-1,-1,-1,-1,-1,-1,-1,-1,-1,-1,-1,-1],"split_conditions":[1.3447617E0,1.547071E-1,-1.9724643E-1,-1.040628E0,-3.709653E-1,-1.4879041E0,6.451077E-1,-1.1372842E0,2.4998615E0,1.5693508E0,9.057782E-1,-6.499082E-1,1.3932691E0,1.6575278E0,-3.752057E-1,-1.147336E0,-1.3617691E-1,2.4331534E0,6.7636156E-1,-4.247233E-1,-1.6336563E0,3.7249672E0,3.0936074E-1,8.599132E-1,1.3742254E0,-1.5146323E0,1.4140452E0,-1.1356063E-1,-7.232046E-1,2.9834528E0,-1.4303532E0,7.3573416E-1,-1.6741391E0,4.5199007E-1,-9.054847E-2,2.2510886E0,-8.3051425E-1,-1.3028666E-1,9.2495674E-1,-2.947698E-1,1.2173331E0,1.3070624E0,8.4746766E-1,-1.1835376E0,-7.831547E-2,2.1455486E0,4.2838362E-1,-6.154293E-1,5.3484327E-1,-2.103466E0,2.5348163E0,6.742735E-1,-2.0148394E-1,-9.4623715E-1,1.9796671E0,1.7732507E0,-1.4072432E-1,-6.829114E-1,1.2924134E0,-1.9403835E-1,1.866517E-1,2.4681368E-1,-8.261492E-2,1.4010305E0,-8.77878E-2,-9.2148416E-2,1.9686583E-1,7.587137E-1,-8.610981E-2,1.5310608E-1,-6.557442E-2,9.709546E-2,1.5016788E0,2.9259954E-2,-4.763291E-2,2.021687E-1,-6.722296E-2,-5.9863873E-2,1.1906928E0,-3.697547E-2,1.6760254E-2,1.6193494E0,3.911824E-2,3.3157587E-3,3.0890733E-2,9.14743E-3,5.957526E-2,-5.1176365E-2,2.1681543E-2,4.18594E-2,-6.5261363E-3,1.1386344E0,2.9111705E-3,3.5019215E-2,7.072622E-1,-1.2674165E-2,7.137426E-2,1.305696E0,-4.9348357E-3,1.6950927E-3,1.9269332E0,-3.511261E-2,2.7494797E-2,1.1839552E0,-5.4933787E-3,-1.5411104E-2,5.3788554E-2],"split_indices":[19,19,18,4,18,18,11,4,5,4,4,8,4,0,5,7,0,18,4,18,18,7,5,0,8,4,4,18,7,14,9,0,5,5,0,4,0,0,0,4,9,0,0,7,0,4,5,10,0,0,19,0,7,0,9,0,8,8,11,0,7,0,0,0,0,0,0,0,0,0,0,0,0,0,0,0,0,0,0,0,0,0,0,0,0,0,0,0,0,0,0,0,0,0,0,0,0,0,0,0,0,0,0,0,0,0,0],"split_type":[0,0,0,0,0,0,0,0,0,0,0,0,0,0,0,0,0,0,0,0,0,0,0,0,0,0,0,0,0,0,0,0,0,0,0,0,0,0,0,0,0,0,0,0,0,0,0,0,0,0,0,0,0,0,0,0,0,0,0,0,0,0,0,0,0,0,0,0,0,0,0,0,0,0,0,0,0,0,0,0,0,0,0,0,0,0,0,0,0,0,0,0,0,0,0,0,0,0,0,0,0,0,0,0,0,0,0],"sum_hessian":[1.265E3,1.006E3,2.59E2,5.05E2,5.01E2,1.02E2,1.57E2,7.5E1,4.3E2,1.93E2,3.08E2,1.2E1,9E1,1.22E2,3.5E1,6.4E1,1.1E1,4.25E2,5E0,1.85E2,8E0,2.61E2,4.7E1,1E0,1.1E1,8.4E1,6E0,1.15E2,7E0,1.2E1,2.3E1,1E0,6.3E1,4E0,7E0,4.21E2,4E0,4E0,1E0,1.69E2,1.6E1,2E0,6E0,2.58E2,3E0,3.2E1,1.5E1,1E1,1E0,5E0,7.9E1,1E0,5E0,3E0,1.12E2,3E0,4E0,7E0,5E0,3E0,2E1,3E0,6E1,3E0,1E0,4.17E2,4E0,1E0,3E0,6.2E1,1.07E2,1.4E1,2E0,5E0,1E0,5E0,2.53E2,2E0,1E0,2.7E1,5E0,3E0,1.2E1,3E0,7E0,1E0,4E0,7E1,9E0,4E0,1E0,1E0,2E0,1.11E2,1E0,1E0,2E0,3E0,1E0,2E0,5E0,3E0,2E0,2E0,1E0,1.6E1,4E0],"tree_param":{"num_deleted":"0","num_feature":"26","num_nodes":"107","size_leaf_vector":"1"}},{"base_weights":[1.2965347E-1,-5.333036E-1,2.5020013E0,-9.747366E-1,5.97408E-1,2.1841922E0,1.5453215E0,2.4927633E0,-1.2109963E0,3.7127805E-1,1.086213E1,1.231119E0,2.013063E0,1.5746209E1,1.11091115E-1,-1.4905188E0,3.272708E-1,1.4383514E-2,5.7868314E0,-1.3047302E0,1.173195E0,3.964903E0,7.4632597E-1,-7.6801755E-2,1.4545951E0,7.1734077E-1,-6.217945E-1,-1.5359015E0,7.568553E0,1.4113387E1,-8.141173E-2,-6.369685E-1,2.6833675E0,-7.942795E-1,1.7984581E1,-7.785862E-2,-1.3685084E-2,3.3570306E0,1.2060714E0,1.4570574E-1,4.52651E0,7.298001E-3,-4.6431262E-2,7.470256E-2,-8.0491595E-2,-2.3873497E-2,5.91515E-1,-8.090742E-2,1.1394114E0,2.594472E-1,-4.2089034E-2,-3.865546E-2,3.2667595E-1,6.7314965E-1,2.645026E-3,-5.5616435E-2,2.6532207E-2,-4.440689E-3,1.3521742E0,3.7242582E-1,-7.872455E-3,-3.0185122E-2,3.857569E-2,6.303065E-2,6.7848915E-1],"categories":[],"categories_nodes":[],"categories_segments":[],"categories_sizes":[],"default_left":[0,0,0,0,0,0,0,0,0,0,0,0,0,0,0,0,0,0,0,0,0,0,0,0,0,0,0,0,0,0,0,0,0,0,0,0,0,0,0,0,0,0,0,0,0,0,0,0,0,0,0,0,0,0,0,0,0,0,0,0,0,0,0,0,0],"id":10,"left_children":[1,3,5,7,9,11,-1,13,15,17,19,-1,21,23,25,27,29,31,33,35,-1,37,39,-1,-1,-1,41,43,45,47,49,51,53,55,57,-1,-1,59,-1,61,63,-1,-1,-1,-1,-1,-1,-1,-1,-1,-1,-1,-1,-1,-1,-1,-1,-1,-1,-1,-1,-1,-1,-1,-1],"loss_changes":[2.0018912E3,4.9722E2,2.4420513E3,5.895878E2,6.458923E2,1.0102273E3,0E0,1.4502574E3,2.8900452E2,5.314317E2,9.5055804E2,0E0,6.769696E2,1.6591907E3,4.2624707E2,2.4514441E2,5.8710004E2,4.519673E2,1.3789554E3,6.149001E-1,0E0,1.242304E3,3.807769E2,0E0,0E0,0E0,9.322798E0,1.2919202E2,1.08518936E2,4.4628058E2,4.1312418E2,2.0907587E2,1.4454158E3,5.6469398E0,9.8475256E2,0E0,0E0,1.5253937E3,0E0,6.893767E1,6.621848E2,0E0,0E0,0E0,0E0,0E0,0E0,0E0,0E0,0E0,0E0,0E0,0E0,0E0,0E0,0E0,0E0,0E0,0E0,0E0,0E0,0E0,0E0,0E0,0E0],"parents":[2147483647,0,0,1,1,2,2,3,3,4,4,5,5,7,7,8,8,9,9,10,10,12,12,13,13,14,14,15,15,16,16,17,17,18,18,19,19,21,21,22,22,26,26,27,27,28,28,29,29,30,30,31,31,32,32,33,33,34,34,37,37,39,39,40,40],"right_children":[2,4,6,8,10,12,-1,14,16,18,20,-1,22,24,26,28,30,32,34,36,-1,38,40,-1,-1,-1,42,44,46,48,50,52,54,56,58,-1,-1,60,-1,62,64,-1,-1,-1,-1,-1,-1,-1,-1,-1,-1,-1,-1,-1,-1,-1,-1,-1,-1,-1,-1,-1,-1,-1,-1],"split_conditions":[1.3447617E0,5.995119E-1,2.1782808E0,-1.5534025E0,2.971475E0,-2.5640237E0,1.5453215E0,-1.2356827E0,9.4666165E-1,1.6149527E0,9.227555E-1,1.231119E0,-2.9343417E-1,-8.004777E-1,-1.147336E0,2.4233975E0,9.652638E-1,5.679299E-1,1.1553288E0,-6.952729E-1,1.173195E0,-3.0419326E-1,1.1219213E0,-7.6801755E-2,1.4545951E0,7.1734077E-1,-3.9126897E-1,-2.0695252E0,-7.726528E-1,-1.1776829E0,-1.088688E0,2.607153E0,6.5439403E-1,2.5820081E0,-4.8423684E-1,-7.785862E-2,-1.3685084E-2,-2.3345394E-1,1.2060714E0,-1.5128746E-2,1.1000661E0,7.298001E-3,-4.6431262E-2,7.470256E-2,-8.0491595E-2,-2.3873497E-2,5.91515E-1,-8.090742E-2,1.1394114E0,2.594472E-1,-4.2089034E-2,-3.865546E-2,3.2667595E-1,6.7314965E-1,2.645026E-3,-5.5616435E-2,2.6532207E-2,-4.440689E-3,1.3521742E0,3.7242582E-1,-7.872455E-3,-3.0185122E-2,3.857569E-2,6.303065E-2,6.7848915E-1],"split_indices":[19,6,0,4,7,2,0,1,3,4,11,0,1,8,7,4,3,7,6,1,0,1,5,0,0,0,1,17,0,0,11,18,7,20,3,0,0,3,0,2,18,0,0,0,0,0,0,0,0,0,0,0,0,0,0,0,0,0,0,0,0,0,0,0,0],"split_type":[0,0,0,0,0,0,0,0,0,0,0,0,0,0,0,0,0,0,0,0,0,0,0,0,0,0,0,0,0,0,0,0,0,0,0,0,0,0,0,0,0,0,0,0,0,0,0,0,0,0,0,0,0,0,0,0,0,0,0,0,0,0,0,0,0],"sum_hessian":[1.271E3,9.94E2,2.77E2,7.15E2,2.79E2,2.75E2,2E0,4.5E1,6.7E2,2.74E2,5E0,1E0,2.74E2,6E0,3.9E1,5.67E2,1.03E2,2.58E2,1.6E1,3E0,2E0,1.07E2,1.67E2,3E0,3E0,1E0,3.8E1,5.65E2,2E0,2E0,1.01E2,2.08E2,5E1,1.1E1,5E0,2E0,1E0,1.05E2,2E0,1.45E2,2.2E1,1.1E1,2.7E1,1.3E1,5.52E2,1E0,1E0,1E0,1E0,1.2E1,8.9E1,2.05E2,3E0,9E0,4.1E1,9E0,2E0,2E0,3E0,4.8E1,5.7E1,6.6E1,7.9E1,1.7E1,5E0],"tree_param":{"num_deleted":"0","num_feature":"26","num_nodes":"65","size_leaf_vector":"1"}},{"base_weights":[1.6093077E-1,-4.498891E-1,1.6858603E0,3.0100284E0,-5.673296E-1,1.200341E0,1.5582355E0,-4.059799E-1,1.4292052E1,-8.427602E-1,3.856322E-1,3.8623175E-1,3.277736E0,5.0640764E0,-1.753195E0,3.9629254E0,1.3371624E0,6.340448E-1,-1.020532E0,-2.9482225E-1,4.706096E0,-1.07371904E-1,3.7218912E0,1.4173218E1,2.6317246E0,-1.1556396E0,7.4857354E-1,-3.6500778E-2,-1.9633639E0,5.767271E-1,-4.0680707E-2,1.2130524E1,-1.1443987E0,-1.4953704E0,-5.500887E-1,-5.625596E-1,6.0964956E0,1.2878172E1,-8.585466E-1,-3.6250162E-1,5.063848E0,8.051017E-1,1.0913227E1,-5.2596886E-2,1.895022E0,1.31723E0,7.2111664E0,-6.913649E-2,-1.1859226E-2,-2.1490121E-2,-1.018474E-1,1.0489229E0,-4.565511E-2,1.2189116E-1,-1.0007323E-1,-7.937031E-2,4.1186795E-1,1.3273309E-1,-3.8498368E-2,-3.7009522E-2,2.6525956E-1,1.2016033E0,-4.490553E-2,1.2024044E0,-2.1905279E-2,1.1809873E-2,-5.1012952E-2,-4.3991424E-2,5.9305664E-2,-3.5339963E-2,6.226928E-1,3.6792874E-1,-3.479768E-2,8.8911337E-1,-2.0068979E-2,9.053814E-3,-1.7331442E-2,1.1806189E0,4.4803E-2,8.2110065E-1,-1.7672224E-2],"categories":[],"categories_nodes":[],"categories_segments":[],"categories_sizes":[],"default_left":[0,0,0,0,0,0,0,0,0,0,0,0,0,0,0,0,0,0,0,0,0,0,0,0,0,0,0,0,0,0,0,0,0,0,0,0,0,0,0,0,0,0,0,0,0,0,0,0,0,0,0,0,0,0,0,0,0,0,0,0,0,0,0,0,0,0,0,0,0,0,0,0,0,0,0,0,0,0,0,0,0],"id":11,"left_children":[1,3,5,7,9,-1,11,13,15,17,19,21,23,25,27,29,-1,31,33,35,37,39,41,43,45,47,-1,-1,49,-1,-1,51,53,55,57,59,61,63,65,67,69,71,73,75,-1,77,79,-1,-1,-1,-1,-1,-1,-1,-1,-1,-1,-1,-1,-1,-1,-1,-1,-1,-1,-1,-1,-1,-1,-1,-1,-1,-1,-1,-1,-1,-1,-1,-1,-1,-1],"loss_changes":[1.1855721E3,3.7106564E2,9.9952075E2,1.1619868E3,2.3130286E2,0E0,7.302738E2,1.8574255E2,7.9428845E2,1.7995801E2,5.8348346E2,3.5768878E2,9.973749E2,3.2540753E2,2.867527E0,1.9021527E2,0E0,1.5268741E3,1.3544202E2,2.9775513E2,1.238873E3,2.5250871E2,5.785309E2,2.7023062E3,8.3325256E2,5.063262E-1,0E0,0E0,9.3004227E-1,0E0,0E0,1.1732468E3,2.0444218E2,2.8449158E2,2.190781E2,1.7694754E2,8.9974927E2,1.6466942E3,3.250554E0,1.4685106E2,3.9260852E2,2.1170087E2,6.289013E2,4.7501057E-1,0E0,1.011747E3,2.1657744E3,0E0,0E0,0E0,0E0,0E0,0E0,0E0,0E0,0E0,0E0,0E0,0E0,0E0,0E0,0E0,0E0,0E0,0E0,0E0,0E0,0E0,0E0,0E0,0E0,0E0,0E0,0E0,0E0,0E0,0E0,0E0,0E0,0E0,0E0],"parents":[2147483647,0,0,1,1,2,2,3,3,4,4,6,6,7,7,8,8,9,9,10,10,11,11,12,12,13,13,14,14,15,15,17,17,18,18,19,19,20,20,21,21,22,22,23,23,24,24,25,25,28,28,31,31,32,32,33,33,34,34,35,35,36,36,37,37,38,38,39,39,40,40,41,41,42,42,43,43,45,45,46,46],"right_children":[2,4,6,8,10,-1,12,14,16,18,20,22,24,26,28,30,-1,32,34,36,38,40,42,44,46,48,-1,-1,50,-1,-1,52,54,56,58,60,62,64,66,68,70,72,74,76,-1,78,80,-1,-1,-1,-1,-1,-1,-1,-1,-1,-1,-1,-1,-1,-1,-1,-1,-1,-1,-1,-1,-1,-1,-1,-1,-1,-1,-1,-1,-1,-1,-1,-1,-1,-1],"split_conditions":[1.5742493E0,-1.901237E0,-2.5640237E0,2.4381232E0,1.7650003E0,1.200341E0,1.6549107E-1,-1.3316638E0,-1.302128E0,-1.1383482E0,1.0946032E0,1.2524978E0,-1.5087198E0,5.00299E-1,-9.879609E-1,-1.8387289E0,1.3371624E0,-1.1466553E0,-2.8454358E-2,1.6550941E0,-3.0976123E-1,2.0705564E0,6.9057375E-1,3.0954823E0,7.2082114E-1,6.9928205E-1,7.4857354E-1,-3.6500778E-2,-2.5640237E0,5.767271E-1,-4.0680707E-2,-1.8512326E-1,-5.41207E-1,2.2335527E0,-8.1389177E-1,1.9014229E0,5.4528113E-3,2.0357802E0,-2.0112634E0,1.7650003E0,-1.5890427E-1,-1.5573772E0,1.7153893E0,6.738833E-1,1.895022E0,-2.0406837E0,1.1825953E0,-6.913649E-2,-1.1859226E-2,-2.1490121E-2,-1.018474E-1,1.0489229E0,-4.565511E-2,1.2189116E-1,-1.0007323E-1,-7.937031E-2,4.1186795E-1,1.3273309E-1,-3.8498368E-2,-3.7009522E-2,2.6525956E-1,1.2016033E0,-4.490553E-2,1.2024044E0,-2.1905279E-2,1.1809873E-2,-5.1012952E-2,-4.3991424E-2,5.9305664E-2,-3.5339963E-2,6.226928E-1,3.6792874E-1,-3.479768E-2,8.8911337E-1,-2.0068979E-2,9.053814E-3,-1.7331442E-2,1.1806189E0,4.4803E-2,8.2110065E-1,-1.7672224E-2],"split_indices":[13,2,2,15,12,0,11,3,17,5,9,0,3,0,9,5,0,11,17,1,0,1,5,16,2,1,0,0,2,0,0,1,0,11,2,11,2,9,3,12,17,9,0,0,0,1,2,0,0,0,0,0,0,0,0,0,0,0,0,0,0,0,0,0,0,0,0,0,0,0,0,0,0,0,0,0,0,0,0,0,0],"split_type":[0,0,0,0,0,0,0,0,0,0,0,0,0,0,0,0,0,0,0,0,0,0,0,0,0,0,0,0,0,0,0,0,0,0,0,0,0,0,0,0,0,0,0,0,0,0,0,0,0,0,0,0,0,0,0,0,0,0,0,0,0,0,0,0,0,0,0,0,0,0,0,0,0,0,0,0,0,0,0,0,0],"sum_hessian":[1.271E3,9.08E2,3.63E2,2.9E1,8.79E2,1E0,3.62E2,2.3E1,6E0,6.82E2,1.97E2,2.16E2,1.46E2,4E0,1.9E1,4E0,2E0,7.3E1,6.09E2,1.71E2,2.6E1,1.89E2,2.7E1,7E0,1.39E2,3E0,1E0,4E0,1.5E1,1E0,3E0,9E0,6.4E1,3.02E2,3.07E2,1.65E2,6E0,1E1,1.6E1,1.81E2,8E0,2E1,7E0,5E0,2E0,1.09E2,3E1,2E0,1E0,1E0,1.4E1,5E0,4E0,1.2E1,5.2E1,3E2,2E0,1.9E1,2.88E2,1.61E2,4E0,1E0,5E0,5E0,5E0,2E0,1.4E1,1.36E2,4.5E1,5E0,3E0,3E0,1.7E1,4E0,3E0,3E0,2E0,1E0,1.08E2,1.3E1,1.7E1],"tree_param":{"num_deleted":"0","num_feature":"26","num_nodes":"81","size_leaf_vector":"1"}},{"base_weights":[2.2163826E-1,-1.0129886E0,9.918125E-1,-1.1710225E0,8.615426E0,2.0807428E0,4.0696973E-1,2.4014808E-1,-1.5189536E0,1.8850777E1,-1.2959388E0,4.214073E0,6.588415E-1,-1.3336176E-1,1.4884171E0,-2.4791768E-1,1.54528265E1,-1.601166E0,5.065875E0,-2.1292401E-2,1.2709134E0,-1.7477147E-2,-9.051776E-2,1.8944747E0,1.2350382E1,3.9793038E-1,1.4615396E1,-6.436954E-1,1.411216E0,1.5751604E1,1.0498368E0,-6.3256735E-1,8.8811255E-1,-3.356886E-2,1.1925309E0,4.293811E0,-1.674906E0,-1.2687698E-1,8.8698834E-1,7.19905E0,2.8274375E-1,2.0692549E1,-1.3979075E0,3.7879562E0,-1.0268829E-1,-1.4913392E-2,1.1110681E0,-7.491232E-1,3.891555E0,3.967062E-2,5.589275E0,1.3702978E0,-5.7664108E-2,4.7109175E0,3.5724197E-2,6.731842E-1,-4.6606597E-2,-7.884693E-2,6.944203E-1,-9.22732E-2,5.1892724E-2,9.4594544E-1,4.1245103E-2,-4.8499994E-2,4.821489E-1,1.4324824E0,-4.757878E-2,-2.2220882E-2,-7.903639E-2,8.8654834E-1,2.3953373E-2,-3.527223E-2,1.1990561E-1,-5.5954285E-2,-2.346545E-3,7.560155E-1,-6.891288E-2,-6.0048636E-2,2.5473133E-1,5.845656E-1,-5.1043898E-2,5.572461E-1,5.498201E-3,-1.971465E-2,2.3813327E-1],"categories":[],"categories_nodes":[],"categories_segments":[],"categories_sizes":[],"default_left":[0,0,0,0,0,0,0,0,0,0,0,0,0,0,0,0,0,0,0,0,0,0,0,0,0,0,0,0,0,0,0,0,0,0,0,0,0,0,0,0,0,0,0,0,0,0,0,0,0,0,0,0,0,0,0,0,0,0,0,0,0,0,0,0,0,0,0,0,0,0,0,0,0,0,0,0,0,0,0,0,0,0,0,0,0],"id":12,"left_children":[1,3,5,7,9,11,13,15,17,19,21,23,25,27,29,31,33,35,37,-1,-1,-1,-1,39,41,43,45,47,49,51,53,55,-1,-1,-1,57,59,-1,-1,61,63,65,67,69,71,-1,-1,73,75,77,79,-1,-1,81,83,-1,-1,-1,-1,-1,-1,-1,-1,-1,-1,-1,-1,-1,-1,-1,-1,-1,-1,-1,-1,-1,-1,-1,-1,-1,-1,-1,-1,-1,-1],"loss_changes":[1.2076686E3,7.526377E2,4.9717236E2,2.3653088E2,8.359998E2,8.2533777E2,2.9821198E2,7.1661066E2,2.1707458E2,5.1722046E2,1.8014116E0,2.0337559E3,5.9501825E2,2.6970166E2,1.0469077E3,6.624307E2,4.2223578E2,1.7324542E2,5.268396E2,0E0,0E0,0E0,0E0,7.332256E2,2.7814993E3,2.7701794E2,3.4692633E2,1.2579762E2,4.868621E2,1.0166843E3,6.161479E2,4.0526443E2,0E0,0E0,0E0,3.0353845E2,1.7680945E2,0E0,0E0,1.4784761E3,7.949939E2,2.610628E3,1.0406704E0,9.6035895E2,2.1724611E2,0E0,0E0,6.541325E1,3.7588022E2,4.1375928E2,8.5897876E2,0E0,0E0,1.0644663E3,2.6815714E2,0E0,0E0,0E0,0E0,0E0,0E0,0E0,0E0,0E0,0E0,0E0,0E0,0E0,0E0,0E0,0E0,0E0,0E0,0E0,0E0,0E0,0E0,0E0,0E0,0E0,0E0,0E0,0E0,0E0,0E0],"parents":[2147483647,0,0,1,1,2,2,3,3,4,4,5,5,6,6,7,7,8,8,9,9,10,10,11,11,12,12,13,13,14,14,15,15,16,16,17,17,18,18,23,23,24,24,25,25,26,26,27,27,28,28,29,29,30,30,31,31,35,35,36,36,39,39,40,40,41,41,42,42,43,43,44,44,47,47,48,48,49,49,50,50,53,53,54,54],"right_children":[2,4,6,8,10,12,14,16,18,20,22,24,26,28,30,32,34,36,38,-1,-1,-1,-1,40,42,44,46,48,50,52,54,56,-1,-1,-1,58,60,-1,-1,62,64,66,68,70,72,-1,-1,74,76,78,80,-1,-1,82,84,-1,-1,-1,-1,-1,-1,-1,-1,-1,-1,-1,-1,-1,-1,-1,-1,-1,-1,-1,-1,-1,-1,-1,-1,-1,-1,-1,-1,-1,-1],"split_conditions":[1.547071E-1,2.095692E0,-4.252506E-1,-9.089779E-1,-1.9173568E-1,-3.1027094E-1,3.286328E-1,-9.373531E-1,2.4998615E0,-7.726528E-1,2.4233975E0,-4.9375397E-1,-4.321876E-1,7.741343E-1,3.397002E-1,1.2884831E0,-7.726528E-1,-2.235126E0,8.365757E-1,-2.1292401E-2,1.2709134E0,-1.7477147E-2,-9.051776E-2,-9.951051E-1,1.64529E-1,-1.1343119E0,-1.3512672E0,2.2940037E0,5.324254E-1,3.2392865E-1,-7.3345435E-1,-1.147336E0,8.8811255E-1,-3.356886E-2,1.1925309E0,6.738833E-1,1.451277E0,-1.2687698E-1,8.8698834E-1,-9.875056E-1,1.0324092E0,2.4381232E0,-1.584949E0,-4.164629E-1,9.9020743E-1,-1.4913392E-2,1.1110681E0,1.3447617E0,-1.040628E0,4.800062E-1,1.1260673E0,1.3702978E0,-5.7664108E-2,-1.7505339E-1,1.5716752E0,6.731842E-1,-4.6606597E-2,-7.884693E-2,6.944203E-1,-9.22732E-2,5.1892724E-2,9.4594544E-1,4.1245103E-2,-4.8499994E-2,4.821489E-1,1.4324824E0,-4.757878E-2,-2.2220882E-2,-7.903639E-2,8.8654834E-1,2.3953373E-2,-3.527223E-2,1.1990561E-1,-5.5954285E-2,-2.346545E-3,7.560155E-1,-6.891288E-2,-6.0048636E-2,2.5473133E-1,5.845656E-1,-5.1043898E-2,5.572461E-1,5.498201E-3,-1.971465E-2,2.3813327E-1],"split_indices":[19,4,1,4,3,2,5,4,5,0,4,2,1,6,5,6,0,6,4,0,0,0,0,5,8,6,0,0,3,1,7,7,0,0,0,0,11,0,0,2,11,15,3,18,4,0,0,19,4,7,3,0,0,6,18,0,0,0,0,0,0,0,0,0,0,0,0,0,0,0,0,0,0,0,0,0,0,0,0,0,0,0,0,0,0],"split_type":[0,0,0,0,0,0,0,0,0,0,0,0,0,0,0,0,0,0,0,0,0,0,0,0,0,0,0,0,0,0,0,0,0,0,0,0,0,0,0,0,0,0,0,0,0,0,0,0,0,0,0,0,0,0,0,0,0,0,0,0,0,0,0,0,0,0,0,0,0,0,0,0,0,0,0,0,0,0,0,0,0,0,0,0,0],"sum_hessian":[1.268E3,4.87E2,7.81E2,4.8E2,7E0,2.72E2,5.09E2,9.5E1,3.85E2,3E0,4E0,1.08E2,1.64E2,3.4E2,1.69E2,9.3E1,2E0,3.81E2,4E0,1E0,2E0,2E0,2E0,8.5E1,2.3E1,1.62E2,2E0,2.56E2,8.4E1,4E0,1.65E2,9.2E1,1E0,1E0,1E0,4E0,3.77E2,3E0,1E0,1.9E1,6.6E1,1.4E1,9E0,2E1,1.42E2,1E0,1E0,2.51E2,5E0,6.4E1,2E1,2E0,2E0,3.5E1,1.3E2,1E0,9.1E1,3E0,1E0,3.55E2,2.2E1,6E0,1.3E1,5.9E1,7E0,1E1,4E0,2E0,7E0,3E0,1.7E1,1.15E2,2.7E1,1.64E2,8.7E1,1E0,4E0,5.2E1,1.2E1,1E1,1E1,1.4E1,2.1E1,1.2E2,1E1],"tree_param":{"num_deleted":"0","num_feature":"26","num_nodes":"85","size_leaf_vector":"1"}},{"base_weights":[7.6439835E-2,-1.2772535E-1,6.4138575E0,-4.901837E-1,1.5866065E0,1.881101E0,1.683353E1,7.4671865E-1,-8.1708497E-1,8.893152E0,1.0000157E0,7.947492E-1,8.1292725E-1,2.058894E0,7.846875E0,1.4253953E1,2.2361965E-1,-1.222417E0,4.7169596E-1,2.1864864E1,-1.0763619E0,4.0469384E0,-1.1094958E-1,9.984526E-1,-5.3296756E-2,1.313267E0,2.8820083E0,2.376796E1,-6.0102213E-2,3.803256E0,-4.0105644E-1,-1.9501637E0,-6.33261E-1,3.061132E-1,1.0966954E1,-3.1205812E-2,1.5314767E0,-1.2789668E0,1.8677045E-2,9.937416E0,-2.6810674E-3,-2.9376385E-1,6.589508E0,1.7720926E-1,1.2916892E0,5.5511993E-1,4.666599E-1,-3.2114505E-3,1.4871033E0,8.3440445E-2,1.1584247E0,1.3413058E-1,-3.6108777E-2,-6.0133904E-2,-1.0511271E-1,3.8345987E-1,-3.769241E-2,-2.3842119E-3,1.9858812E-1,8.648136E-1,-4.2292047E-2,3.808093E-3,-6.1485292E-3,-1.983657E-2,-7.3717915E-2,1.0390122E0,1.7460403E-1,-2.6956841E-2,2.7707946E-1,-3.3586334E-2,9.3355246E-2,6.59049E-1,-6.5437955E-5,2.9826963E-2,-9.68483E-3,-3.3003926E-2,7.183959E-2,-4.1834164E-2,3.86189E-2],"categories":[],"categories_nodes":[],"categories_segments":[],"categories_sizes":[],"default_left":[0,0,0,0,0,0,0,0,0,0,0,0,0,0,0,0,0,0,0,0,0,0,0,0,0,0,0,0,0,0,0,0,0,0,0,0,0,0,0,0,0,0,0,0,0,0,0,0,0,0,0,0,0,0,0,0,0,0,0,0,0,0,0,0,0,0,0,0,0,0,0,0,0,0,0,0,0,0,0],"id":13,"left_children":[1,3,5,7,9,11,13,15,17,19,21,-1,23,-1,25,27,29,31,33,35,37,39,41,43,-1,-1,45,47,-1,49,51,53,55,57,59,61,-1,63,-1,65,67,69,71,73,75,-1,77,-1,-1,-1,-1,-1,-1,-1,-1,-1,-1,-1,-1,-1,-1,-1,-1,-1,-1,-1,-1,-1,-1,-1,-1,-1,-1,-1,-1,-1,-1,-1,-1],"loss_changes":[1.6582794E3,7.725241E2,1.8575283E3,4.1546808E2,9.211584E2,4.2118713E2,2.302173E3,1.515921E3,4.2475262E2,2.0926812E3,6.842242E2,0E0,1.0824432E1,0E0,8.387554E2,1.2049578E3,4.6663687E2,2.6373645E2,3.3552045E2,1.3443386E3,3.4153204E0,1.288153E3,1.844517E2,6.032385E0,0E0,0E0,1.735149E2,7.137903E2,0E0,1.2426924E3,1.7819731E2,2.8848877E1,3.4918253E2,2.5049059E2,2.3893073E2,3.8923375E-2,0E0,9.6650505E-1,0E0,1.4649182E3,1.01138115E2,1.2049647E2,1.7378996E2,1.3598032E0,6.329317E0,0E0,3.8338804E0,0E0,0E0,0E0,0E0,0E0,0E0,0E0,0E0,0E0,0E0,0E0,0E0,0E0,0E0,0E0,0E0,0E0,0E0,0E0,0E0,0E0,0E0,0E0,0E0,0E0,0E0,0E0,0E0,0E0,0E0,0E0,0E0],"parents":[2147483647,0,0,1,1,2,2,3,3,4,4,5,5,6,6,7,7,8,8,9,9,10,10,12,12,14,14,15,15,16,16,17,17,18,18,19,19,20,20,21,21,22,22,23,23,26,26,27,27,29,29,30,30,31,31,32,32,33,33,34,34,35,35,37,37,39,39,40,40,41,41,42,42,43,43,44,44,46,46],"right_children":[2,4,6,8,10,12,14,16,18,20,22,-1,24,-1,26,28,30,32,34,36,38,40,42,44,-1,-1,46,48,-1,50,52,54,56,58,60,62,-1,64,-1,66,68,70,72,74,76,-1,78,-1,-1,-1,-1,-1,-1,-1,-1,-1,-1,-1,-1,-1,-1,-1,-1,-1,-1,-1,-1,-1,-1,-1,-1,-1,-1,-1,-1,-1,-1,-1,-1],"split_conditions":[2.5348163E0,1.3447617E0,7.198957E-1,-8.4845334E-1,-1.411477E0,-1.8331238E0,7.837028E-1,-1.8073577E0,8.9230824E-1,-2.1241239E-1,-7.596188E-1,7.947492E-1,4.4798994E-1,2.058894E0,-1.5087198E0,3.630577E-1,-1.088688E0,-3.50706E-1,2.4998615E0,-9.082135E-1,9.7418135E-1,-4.669634E-1,1.9796671E0,-5.9906846E-1,-5.3296756E-2,1.313267E0,-1.5573772E0,-5.4180574E-1,-6.0102213E-2,-1.1849294E0,-1.09935E0,-4.8810494E-1,-3.372293E-1,2.095692E0,-1.3617691E-1,-2.0454021E-2,1.5314767E0,-1.582713E0,1.8677045E-2,-3.6177337E-1,7.896062E-1,1.0258851E0,-9.775763E-2,-9.4623715E-1,-2.1953223E0,5.5511993E-1,-8.020221E-1,-3.2114505E-3,1.4871033E0,8.3440445E-2,1.1584247E0,1.3413058E-1,-3.6108777E-2,-6.0133904E-2,-1.0511271E-1,3.8345987E-1,-3.769241E-2,-2.3842119E-3,1.9858812E-1,8.648136E-1,-4.2292047E-2,3.808093E-3,-6.1485292E-3,-1.983657E-2,-7.3717915E-2,1.0390122E0,1.7460403E-1,-2.6956841E-2,2.7707946E-1,-3.3586334E-2,9.3355246E-2,6.59049E-1,-6.5437955E-5,2.9826963E-2,-9.68483E-3,-3.3003926E-2,7.183959E-2,-4.1834164E-2,3.86189E-2],"split_indices":[19,19,11,4,9,11,11,1,4,3,1,0,11,0,3,17,11,7,5,11,3,5,9,0,0,0,9,3,0,11,1,4,7,4,0,0,0,0,0,17,0,17,3,0,1,0,7,0,0,0,0,0,0,0,0,0,0,0,0,0,0,0,0,0,0,0,0,0,0,0,0,0,0,0,0,0,0,0,0],"split_type":[0,0,0,0,0,0,0,0,0,0,0,0,0,0,0,0,0,0,0,0,0,0,0,0,0,0,0,0,0,0,0,0,0,0,0,0,0,0,0,0,0,0,0,0,0,0,0,0,0,0,0,0,0,0,0,0,0,0,0,0,0,0,0,0,0,0,0,0,0,0,0,0,0,0,0,0,0,0,0],"sum_hessian":[1.28E3,1.241E3,3.9E1,1.025E3,2.16E2,2.8E1,1.1E1,2.14E2,8.11E2,1.5E1,2.01E2,1E0,2.7E1,2E0,9E0,7E0,2.07E2,6.17E2,1.94E2,6E0,9E0,5.3E1,1.48E2,2.5E1,2E0,1E0,8E0,4E0,3E0,3E1,1.77E2,2.75E2,3.42E2,1.92E2,2E0,2E0,4E0,8E0,1E0,2.1E1,3.2E1,1.45E2,3E0,7E0,1.8E1,1E0,7E0,1E0,3E0,2.8E1,2E0,1.6E1,1.61E2,4.8E1,2.27E2,4E0,3.38E2,1.76E2,1.6E1,1E0,1E0,1E0,1E0,2E0,6E0,7E0,1.4E1,3E1,2E0,1.24E2,2.1E1,1E0,2E0,3E0,4E0,1E0,1.7E1,1E0,6E0],"tree_param":{"num_deleted":"0","num_feature":"26","num_nodes":"79","size_leaf_vector":"1"}},{"base_weights":[1.6744274E-1,-3.6402896E-1,2.1214573E0,-5.372964E-1,2.4384258E0,1.8381517E0,2.050175E1,-1.211078E0,1.4778365E-1,5.0726587E-1,1.2896156E1,1.1332581E0,1.6746472E0,1.3906174E0,-3.5751034E-2,4.1545126E-1,-1.5745418E0,-4.6254224E-1,1.9880102E0,-4.3426958E-1,4.3168344E0,-1.6428678E0,2.043948E1,3.432472E0,5.069201E-1,-9.332878E-2,1.4692402E1,4.31488E0,-1.6475066E0,2.6601772E0,-6.598591E-1,4.2508802E0,-8.788086E-1,-1.0686188E0,1.62151E-1,1.0935415E1,-8.190196E-2,-1.24565605E-2,-1.01220146E-1,1.5286964E0,1.13723435E-1,1.1008545E1,1.6513925E0,2.2601652E-1,1.1475882E1,-2.5259051E-2,8.6255646E-1,-3.1826902E-2,1.133757E0,-6.932105E-2,6.7800206E-1,-5.100108E-3,-9.3201704E-2,1.5272209E-2,1.243871E0,-3.9088935E-2,2.1725641E-1,5.780755E-1,1.355733E-1,-5.174123E-2,5.4316106E-3,-6.348503E-2,2.4703933E-2,-4.015907E-2,1.49421645E-2,7.0867044E-1,3.0535841E-2,2.096012E-2,-4.4488765E-2,1.16359E-2,-3.1066418E-3,1.3251561E0,2.0384057E-1,3.0899478E-2,4.773398E-1,3.0935348E-3,4.3431303E-1,1.0906737E0,3.7942998E-2],"categories":[],"categories_nodes":[],"categories_segments":[],"categories_sizes":[],"default_left":[0,0,0,0,0,0,0,0,0,0,0,0,0,0,0,0,0,0,0,0,0,0,0,0,0,0,0,0,0,0,0,0,0,0,0,0,0,0,0,0,0,0,0,0,0,0,0,0,0,0,0,0,0,0,0,0,0,0,0,0,0,0,0,0,0,0,0,0,0,0,0,0,0,0,0,0,0,0,0],"id":14,"left_children":[1,3,5,7,9,11,13,15,17,19,21,-1,23,-1,-1,25,27,29,31,33,35,37,39,41,43,45,47,49,51,53,55,57,59,61,63,65,67,-1,-1,-1,69,71,73,75,77,-1,-1,-1,-1,-1,-1,-1,-1,-1,-1,-1,-1,-1,-1,-1,-1,-1,-1,-1,-1,-1,-1,-1,-1,-1,-1,-1,-1,-1,-1,-1,-1,-1,-1],"loss_changes":[1.3113636E3,4.8348535E2,1.3682703E3,4.3223132E2,1.1648002E3,8.712611E2,6.403154E2,2.7969305E2,5.2317865E2,1.8121687E2,1.02063257E3,0E0,5.442675E2,0E0,0E0,6.3332416E2,1.7298108E2,2.1741315E2,7.562555E2,1.5685171E1,2.9202954E2,1.6226959E0,1.2324648E3,1.4121409E3,4.934827E2,6.159E2,3.815343E2,2.8234717E2,1.276438E2,1.0910304E3,2.0476497E2,7.001671E2,8.123348E0,6.911934E0,3.1430023E0,1.25069336E2,3.2067978E0,0E0,0E0,0E0,7.723725E-2,2.0400371E3,7.039447E2,2.1887936E2,4.2659943E2,0E0,0E0,0E0,0E0,0E0,0E0,0E0,0E0,0E0,0E0,0E0,0E0,0E0,0E0,0E0,0E0,0E0,0E0,0E0,0E0,0E0,0E0,0E0,0E0,0E0,0E0,0E0,0E0,0E0,0E0,0E0,0E0,0E0,0E0],"parents":[2147483647,0,0,1,1,2,2,3,3,4,4,5,5,6,6,7,7,8,8,9,9,10,10,12,12,15,15,16,16,17,17,18,18,19,19,20,20,21,21,22,22,23,23,24,24,25,25,26,26,27,27,28,28,29,29,30,30,31,31,32,32,33,33,34,34,35,35,36,36,40,40,41,41,42,42,43,43,44,44],"right_children":[2,4,6,8,10,12,14,16,18,20,22,-1,24,-1,-1,26,28,30,32,34,36,38,40,42,44,46,48,50,52,54,56,58,60,62,64,66,68,-1,-1,-1,70,72,74,76,78,-1,-1,-1,-1,-1,-1,-1,-1,-1,-1,-1,-1,-1,-1,-1,-1,-1,-1,-1,-1,-1,-1,-1,-1,-1,-1,-1,-1,-1,-1,-1,-1,-1,-1],"split_conditions":[1.3447617E0,1.5693508E0,2.1782808E0,1.547071E-1,1.1553288E0,-2.5640237E0,1.0870563E-1,-9.089779E-1,7.115424E-1,9.5025575E-1,-2.518998E-1,1.1332581E0,-1.8020883E-1,1.3906174E0,-3.5751034E-2,-9.373531E-1,-2.235126E0,-1.5273901E0,1.2795318E0,1.547071E-1,-7.596188E-1,-3.0419326E-1,4.070596E-1,-9.032436E-1,2.7531686E0,1.2884831E0,-7.726528E-1,6.738833E-1,-1.1383517E0,-1.560601E0,3.7249672E0,-7.5344557E-1,3.0954823E0,1.20353E0,-1.2909862E0,2.1099176E-1,1.6714921E0,-1.24565605E-2,-1.01220146E-1,1.5286964E0,-1.9403835E-1,-1.0391043E0,-3.0419326E-1,1.8359947E0,1.713386E-1,-2.5259051E-2,8.6255646E-1,-3.1826902E-2,1.133757E0,-6.932105E-2,6.7800206E-1,-5.100108E-3,-9.3201704E-2,1.5272209E-2,1.243871E0,-3.9088935E-2,2.1725641E-1,5.780755E-1,1.355733E-1,-5.174123E-2,5.4316106E-3,-6.348503E-2,2.4703933E-2,-4.015907E-2,1.49421645E-2,7.0867044E-1,3.0535841E-2,2.096012E-2,-4.4488765E-2,1.16359E-2,-3.1066418E-3,1.3251561E0,2.0384057E-1,3.0899478E-2,4.773398E-1,3.0935348E-3,4.3431303E-1,1.0906737E0,3.7942998E-2],"split_indices":[19,4,0,19,6,2,1,4,3,10,0,0,1,0,0,4,6,1,3,19,1,1,5,17,10,6,0,0,3,1,7,8,16,9,6,0,10,0,0,0,0,5,1,9,1,0,0,0,0,0,0,0,0,0,0,0,0,0,0,0,0,0,0,0,0,0,0,0,0,0,0,0,0,0,0,0,0,0,0],"split_type":[0,0,0,0,0,0,0,0,0,0,0,0,0,0,0,0,0,0,0,0,0,0,0,0,0,0,0,0,0,0,0,0,0,0,0,0,0,0,0,0,0,0,0,0,0,0,0,0,0,0,0,0,0,0,0,0,0,0,0,0,0,0,0,0,0,0,0,0,0,0,0,0,0,0,0,0,0,0,0],"sum_hessian":[1.261E3,9.92E2,2.69E2,9.35E2,5.7E1,2.66E2,3E0,4.71E2,4.64E2,4.9E1,8E0,1E0,2.65E2,2E0,1E0,8.6E1,3.85E2,3.49E2,1.15E2,4E1,9E0,3E0,5E0,1.05E2,1.6E2,8.4E1,2E0,4E0,3.81E2,2E1,3.29E2,6.4E1,5.1E1,1.9E1,2.1E1,3E0,6E0,1E0,2E0,3E0,2E0,1.9E1,8.6E1,1.57E2,3E0,8.3E1,1E0,1E0,1E0,3E0,1E0,4.7E1,3.34E2,1.9E1,1E0,3.22E2,7E0,1E1,5.4E1,4.4E1,7E0,1.7E1,2E0,2E0,1.9E1,2E0,1E0,4E0,2E0,1E0,1E0,5E0,1.4E1,7.7E1,9E0,1.55E2,2E0,1E0,2E0],"tree_param":{"num_deleted":"0","num_feature":"26","num_nodes":"79","size_leaf_vector":"1"}},{"base_weights":[1.4866987E-1,-3.693082E-1,1.5061133E0,-5.2079767E-1,1.7550576E0,3.5009575E-1,3.7860632E0,4.2151406E-2,-1.035374E0,1.2080936E1,-4.6301404E-1,8.3188623E-1,2.0998786E-1,1.632187E1,2.7355378E0,-1.019167E-1,9.87978E0,5.056446E0,-1.1146498E0,-1.5144088E0,2.006605E1,1.1374002E1,-1.1639748E0,1.316631E0,-4.4943494E-1,3.0091702E1,-7.123337E-1,1.5983749E1,1.959832E0,1.0039371E0,-7.304293E-1,8.1699413E-1,2.5647593E0,6.95584E-1,5.030632E-1,-1.4393312E0,-2.8266504E-1,-9.353719E-2,-3.266355E-2,2.3939812E1,-7.9413176E-2,8.4099257E-1,1.2057662E-2,-1.8267806E0,9.82891E0,8.7284005E-1,1.3599759E1,3.9567156E0,-6.634745E-1,-2.6626898E-2,1.8940449E0,-9.859228E-1,9.550571E-3,-1.8176985E-1,1.610493E0,5.7153916E0,-7.9758763E-1,3.2410096E-2,6.8686444E-1,-6.1150808E-2,7.1788765E-2,3.5567608E-1,-6.613343E-2,-4.1071773E-2,5.1977336E-2,-7.6112665E-2,1.796454E-2,1.5045454E-1,-4.2693205E-2,-7.161236E-3,1.4392532E0,-9.5316514E-2,9.5351534E-5,7.3231393E-1,4.8542977E-3,3.7126124E-1,1.883512E-2,1.0636303E0,-4.364834E-2,-2.3507237E-2,7.6294696E-1,-5.1875163E-2,1.0738833E-1,-1.4757037E-2,-5.589016E-2,9.590817E-3,-3.256321E-2,-5.959248E-2,5.404416E-1,3.3704227E-1,-5.8060806E-2],"categories":[],"categories_nodes":[],"categories_segments":[],"categories_sizes":[],"default_left":[0,0,0,0,0,0,0,0,0,0,0,0,0,0,0,0,0,0,0,0,0,0,0,0,0,0,0,0,0,0,0,0,0,0,0,0,0,0,0,0,0,0,0,0,0,0,0,0,0,0,0,0,0,0,0,0,0,0,0,0,0,0,0,0,0,0,0,0,0,0,0,0,0,0,0,0,0,0,0,0,0,0,0,0,0,0,0,0,0,0,0],"id":15,"left_children":[1,3,5,7,9,11,13,15,17,19,21,-1,23,25,27,29,31,33,35,37,39,41,43,45,47,49,51,53,55,57,59,-1,61,-1,63,65,67,-1,-1,69,-1,-1,-1,71,73,75,77,79,81,-1,-1,83,-1,85,-1,87,89,-1,-1,-1,-1,-1,-1,-1,-1,-1,-1,-1,-1,-1,-1,-1,-1,-1,-1,-1,-1,-1,-1,-1,-1,-1,-1,-1,-1,-1,-1,-1,-1,-1,-1],"loss_changes":[9.0126056E2,2.995621E2,9.316988E2,2.5119644E2,1.425613E3,5.3506415E2,1.5224841E3,5.8918164E2,2.2440512E2,1.2245521E3,4.4469778E2,0E0,1.7208197E2,2.132458E3,1.1093896E3,2.8570093E2,2.4162677E2,2.3492917E2,1.2061139E2,3.1216335E-1,6.252085E2,1.778273E2,3.8226266E2,4.678299E2,1.4220259E2,1.2128643E3,1.4240494E0,1.5796755E3,1.1022577E3,6.66021E2,2.813215E2,0E0,8.014078E1,0E0,4.4067793E0,4.8571716E1,2.4136081E2,0E0,0E0,7.042529E2,0E0,0E0,0E0,6.986267E0,1.3922342E2,2.76779E2,3.5171136E2,3.5740747E2,1.5153918E2,0E0,0E0,3.4493208E-2,0E0,8.265095E-1,0E0,1.5960553E3,1.777813E2,0E0,0E0,0E0,0E0,0E0,0E0,0E0,0E0,0E0,0E0,0E0,0E0,0E0,0E0,0E0,0E0,0E0,0E0,0E0,0E0,0E0,0E0,0E0,0E0,0E0,0E0,0E0,0E0,0E0,0E0,0E0,0E0,0E0,0E0],"parents":[2147483647,0,0,1,1,2,2,3,3,4,4,5,5,6,6,7,7,8,8,9,9,10,10,12,12,13,13,14,14,15,15,16,16,17,17,18,18,19,19,20,20,21,21,22,22,23,23,24,24,25,25,26,26,27,27,28,28,29,29,30,30,32,32,34,34,35,35,36,36,39,39,43,43,44,44,45,45,46,46,47,47,48,48,51,51,53,53,55,55,56,56],"right_children":[2,4,6,8,10,12,14,16,18,20,22,-1,24,26,28,30,32,34,36,38,40,42,44,46,48,50,52,54,56,58,60,-1,62,-1,64,66,68,-1,-1,70,-1,-1,-1,72,74,76,78,80,82,-1,-1,84,-1,86,-1,88,90,-1,-1,-1,-1,-1,-1,-1,-1,-1,-1,-1,-1,-1,-1,-1,-1,-1,-1,-1,-1,-1,-1,-1,-1,-1,-1,-1,-1,-1,-1,-1,-1,-1,-1],"split_conditions":[1.5742493E0,1.481401E0,3.1876642E-1,-8.205859E-2,-6.5710455E-1,-1.1835376E0,3.9273295E-1,-9.318195E-2,-2.4251375E0,3.1137353E-2,-1.040628E0,8.3188623E-1,-4.0460756E-1,2.666571E-1,-1.8515455E0,-3.5564363E-1,-8.8289976E-2,-1.2498484E0,6.1283606E-1,-9.6398406E-2,9.199003E-1,-5.41207E-1,2.2269528E0,-4.215893E-1,-1.5468849E0,-1.04533546E-1,4.4243753E-1,-1.042743E-2,-2.947698E-1,-1.2333038E-1,8.9230824E-1,8.1699413E-1,-1.0040985E0,6.95584E-1,-2.103466E0,1.9014229E0,7.3651344E-1,-9.353719E-2,-3.266355E-2,-1.6984359E0,-7.9413176E-2,8.4099257E-1,1.2057662E-2,1.3828615E0,-8.3051425E-1,-7.6882356E-1,-9.4623715E-1,-1.7060022E0,1.3634468E0,-2.6626898E-2,1.8940449E0,-9.4623715E-1,9.550571E-3,3.2671463E-1,1.610493E0,-2.8216472E-1,-1.5573772E0,3.2410096E-2,6.8686444E-1,-6.1150808E-2,7.1788765E-2,3.5567608E-1,-6.613343E-2,-4.1071773E-2,5.1977336E-2,-7.6112665E-2,1.796454E-2,1.5045454E-1,-4.2693205E-2,-7.161236E-3,1.4392532E0,-9.5316514E-2,9.5351534E-5,7.3231393E-1,4.8542977E-3,3.7126124E-1,1.883512E-2,1.0636303E0,-4.364834E-2,-2.3507237E-2,7.6294696E-1,-5.1875163E-2,1.0738833E-1,-1.4757037E-2,-5.589016E-2,9.590817E-3,-3.256321E-2,-5.959248E-2,5.404416E-1,3.3704227E-1,-5.8060806E-2],"split_indices":[13,6,11,11,10,7,11,11,4,4,4,0,4,9,8,18,10,6,18,2,8,0,18,4,18,4,0,10,4,11,4,0,0,0,0,11,18,0,0,0,0,0,0,5,0,10,0,2,4,0,0,0,0,0,0,9,9,0,0,0,0,0,0,0,0,0,0,0,0,0,0,0,0,0,0,0,0,0,0,0,0,0,0,0,0,0,0,0,0,0,0],"split_type":[0,0,0,0,0,0,0,0,0,0,0,0,0,0,0,0,0,0,0,0,0,0,0,0,0,0,0,0,0,0,0,0,0,0,0,0,0,0,0,0,0,0,0,0,0,0,0,0,0,0,0,0,0,0,0,0,0,0,0,0,0,0,0,0,0,0,0,0,0,0,0,0,0,0,0,0,0,0,0,0,0,0,0,0,0,0,0,0,0,0,0],"sum_hessian":[1.28E3,9.27E2,3.53E2,8.66E2,6.1E1,2.35E2,1.18E2,4.14E2,4.52E2,1E1,5.1E1,1E0,2.34E2,8E0,1.1E2,4.09E2,5E0,5E0,4.47E2,4E0,6E0,2E0,4.9E1,8.7E1,1.47E2,4E0,4E0,5E0,1.05E2,1.48E2,2.61E2,2E0,3E0,1E0,4E0,3.21E2,1.26E2,2E0,2E0,5E0,1E0,1E0,1E0,4.7E1,2E0,8.5E1,2E0,6E0,1.41E2,1E0,3E0,3E0,1E0,3E0,2E0,4.4E1,6.1E1,1.45E2,3E0,2.13E2,4.8E1,1E0,2E0,1E0,3E0,3.07E2,1.4E1,1.8E1,1.08E2,1E0,4E0,4.5E1,2E0,1E0,1E0,5E0,8E1,1E0,1E0,5E0,1E0,1.25E2,1.6E1,1E0,2E0,2E0,1E0,1.9E1,2.5E1,2E0,5.9E1],"tree_param":{"num_deleted":"0","num_feature":"26","num_nodes":"91","size_leaf_vector":"1"}},{"base_weights":[9.445004E-2,1.2935246E0,-2.9281065E-1,8.683253E0,8.869627E-1,-7.23454E-1,3.74549E-1,1.8179445E1,-7.2261226E-1,-7.984211E-2,3.9818788E0,-7.7196366E-1,4.062133E0,6.5454364E-2,3.4817522E0,9.501029E0,1.4738232E0,-1.5292248E0,6.6795945E-1,-2.2662137E-1,8.1996787E-1,2.2154589E1,2.8375099E0,-2.3638758E-1,-1.2831367E0,-1.8752695E0,8.4372866E-1,5.4843903E0,-1.13746084E-1,1.0231446E0,2.3470845E0,-5.2918816E-1,9.853821E-1,-1.6707493E0,-2.0540047E-2,6.663275E-3,4.008845E-2,9.535621E0,-4.022881E-1,1.5091819E0,-4.8313737E-2,1.0598076E1,9.5160323E-1,-4.6852687E-1,3.2072477E0,-1.5124009E0,-2.7766308E-1,-2.3222113E-2,-1.0559329E-1,1.7725098E1,-1.3215123E0,-2.7054572E-1,6.290057E0,1.1083233E1,-4.3123335E-1,-6.6953376E-2,9.356371E-3,-9.251131E-2,-2.3821045E-2,1.0575755E0,-6.934223E-2,-5.158484E-2,1.1930664E-1,9.284459E-2,1.2106296E0,2.9197E-3,8.207216E-1,3.918637E-2,-5.5130966E-2,5.967726E-1,-6.9528446E-3,8.899281E-3,-8.2103126E-2,3.0463088E-1,-4.424252E-2,4.315138E-3,1.1787964E0,-7.508098E-2,-1.5190125E-3,5.09621E-1,-1.8329501E-2,1.2449439E0,3.7336212E-3,2.7885637E-1,1.2406492E0,-3.8825125E-2,4.2454053E-2],"categories":[],"categories_nodes":[],"categories_segments":[],"categories_sizes":[],"default_left":[0,0,0,0,0,0,0,0,0,0,0,0,0,0,0,0,0,0,0,0,0,0,0,0,0,0,0,0,0,0,0,0,0,0,0,0,0,0,0,0,0,0,0,0,0,0,0,0,0,0,0,0,0,0,0,0,0,0,0,0,0,0,0,0,0,0,0,0,0,0,0,0,0,0,0,0,0,0,0,0,0,0,0,0,0,0,0],"id":16,"left_children":[1,3,5,7,9,11,13,15,17,19,21,23,25,27,29,31,-1,33,35,37,-1,39,41,43,45,47,-1,49,51,-1,53,55,-1,57,-1,-1,-1,59,61,-1,-1,63,65,67,69,71,73,-1,-1,75,77,79,81,83,85,-1,-1,-1,-1,-1,-1,-1,-1,-1,-1,-1,-1,-1,-1,-1,-1,-1,-1,-1,-1,-1,-1,-1,-1,-1,-1,-1,-1,-1,-1,-1,-1],"loss_changes":[5.877871E2,9.206522E2,2.75307E2,1.4422552E3,8.800188E2,1.3824548E2,3.6088995E2,5.0426514E2,1.1116333E1,5.479475E2,1.3928763E3,1.5766315E2,4.8808008E2,3.337028E2,6.0708203E2,6.246763E2,0E0,2.6336098E-1,1.7934036E-1,3.879739E2,0E0,7.717196E2,9.7050696E2,2.2773375E2,6.758322E1,6.881428E-1,0E0,9.398236E2,3.3607175E2,0E0,8.057488E2,2.571093E0,0E0,1.9028473E-1,0E0,0E0,0E0,5.368303E2,3.9032922E2,0E0,0E0,1.5021307E3,7.5867633E2,2.1208011E2,5.2738983E2,5.289502E1,2.2199646E2,0E0,0E0,4.1077173E2,1.8147202E0,3.3133646E2,9.234286E2,4.6639453E2,1.2152694E1,0E0,0E0,0E0,0E0,0E0,0E0,0E0,0E0,0E0,0E0,0E0,0E0,0E0,0E0,0E0,0E0,0E0,0E0,0E0,0E0,0E0,0E0,0E0,0E0,0E0,0E0,0E0,0E0,0E0,0E0,0E0,0E0],"parents":[2147483647,0,0,1,1,2,2,3,3,4,4,5,5,6,6,7,7,8,8,9,9,10,10,11,11,12,12,13,13,14,14,15,15,17,17,18,18,19,19,21,21,22,22,23,23,24,24,25,25,27,27,28,28,30,30,31,31,33,33,37,37,38,38,41,41,42,42,43,43,44,44,45,45,46,46,49,49,50,50,51,51,52,52,53,53,54,54],"right_children":[2,4,6,8,10,12,14,16,18,20,22,24,26,28,30,32,-1,34,36,38,-1,40,42,44,46,48,-1,50,52,-1,54,56,-1,58,-1,-1,-1,60,62,-1,-1,64,66,68,70,72,74,-1,-1,76,78,80,82,84,86,-1,-1,-1,-1,-1,-1,-1,-1,-1,-1,-1,-1,-1,-1,-1,-1,-1,-1,-1,-1,-1,-1,-1,-1,-1,-1,-1,-1,-1,-1,-1,-1],"split_conditions":[-7.596188E-1,-1.5534025E0,1.8740164E-1,-3.650092E-1,9.9020743E-1,2.4998615E0,1.268221E0,-8.46235E-1,8.2438767E-1,2.239927E0,1.0118449E0,-2.9446003E-1,-2.4194433E-1,2.0918147E-1,-2.0786278E0,-1.3477634E-1,1.4738232E0,1.043215E0,-1.2081558E0,-2.5640237E0,8.1996787E-1,-1.0329037E0,-1.0297086E0,-3.50706E-1,1.4732519E0,-1.901237E0,8.4372866E-1,2.1311365E-2,2.095692E0,1.0231446E0,1.4780614E0,-1.6968337E0,9.853821E-1,-1.09935E0,-2.0540047E-2,6.663275E-3,4.008845E-2,-4.3348914E-1,9.4666165E-1,1.5091819E0,-4.8313737E-2,-1.3379358E0,1.7218586E0,-3.4816244E-1,-3.372293E-1,-1.6660517E0,-1.1323577E0,-2.3222113E-2,-1.0559329E-1,6.632903E-2,7.8324217E-1,-1.1835376E0,-1.5573772E0,1.4430615E0,1.2270503E0,-6.6953376E-2,9.356371E-3,-9.251131E-2,-2.3821045E-2,1.0575755E0,-6.934223E-2,-5.158484E-2,1.1930664E-1,9.284459E-2,1.2106296E0,2.9197E-3,8.207216E-1,3.918637E-2,-5.5130966E-2,5.967726E-1,-6.9528446E-3,8.899281E-3,-8.2103126E-2,3.0463088E-1,-4.424252E-2,4.315138E-3,1.1787964E0,-7.508098E-2,-1.5190125E-3,5.09621E-1,-1.8329501E-2,1.2449439E0,3.7336212E-3,2.7885637E-1,1.2406492E0,-3.8825125E-2,4.2454053E-2],"split_indices":[1,4,2,6,4,5,10,6,18,6,4,7,2,2,8,3,0,2,1,2,0,1,17,7,22,2,0,5,4,0,10,1,0,1,0,0,0,3,3,0,0,1,11,6,7,17,8,0,0,1,5,7,9,10,1,0,0,0,0,0,0,0,0,0,0,0,0,0,0,0,0,0,0,0,0,0,0,0,0,0,0,0,0,0,0,0,0],"split_type":[0,0,0,0,0,0,0,0,0,0,0,0,0,0,0,0,0,0,0,0,0,0,0,0,0,0,0,0,0,0,0,0,0,0,0,0,0,0,0,0,0,0,0,0,0,0,0,0,0,0,0,0,0,0,0,0,0,0,0,0,0,0,0,0,0,0,0,0,0,0,0,0,0,0,0,0,0,0,0,0,0,0,0,0,0,0,0],"sum_hessian":[1.264E3,3.08E2,9.56E2,1.5E1,2.93E2,5.81E2,3.75E2,7E0,8E0,2.24E2,6.9E1,5.76E2,5E0,3.42E2,3.3E1,5E0,2E0,5E0,3E0,2.23E2,1E0,3E0,6.6E1,2.82E2,2.94E2,4E0,1E0,1E1,3.32E2,1E0,3.2E1,3E0,2E0,4E0,1E0,1E0,2E0,3E0,2.2E2,2E0,1E0,1.2E1,5.4E1,2.65E2,1.7E1,2.39E2,5.5E1,1E0,3E0,3E0,7E0,3.25E2,7E0,7E0,2.5E1,1E0,2E0,3E0,1E0,1E0,2E0,1.8E2,4E1,8E0,4E0,5.2E1,2E0,8.9E1,1.76E2,4E0,1.3E1,1.7E1,2.22E2,4E0,5.1E1,1E0,2E0,6E0,1E0,2E0,3.23E2,1E0,6E0,6E0,1E0,2E1,5E0],"tree_param":{"num_deleted":"0","num_feature":"26","num_nodes":"87","size_leaf_vector":"1"}},{"base_weights":[3.0282137E-1,1.1433512E-1,5.209052E0,-8.70469E-1,7.9241735E-1,1.620336E0,1.2756956E1,1.1359593E0,-1.2958812E0,6.9774175E0,6.0732186E-1,7.4592584E-1,7.3856425E-1,1.8797053E0,6.044003E0,5.465536E-1,8.826801E-1,-1.4143518E0,4.179286E0,1.2086825E0,3.8949902E0,1.4715644E0,1.0327176E-1,-2.2791107E-1,1.2556661E0,2.1994884E0,1.3044544E0,6.1251163E-2,1.3952837E1,5.8405175E0,-1.4830213E0,1.2138203E0,-1.3674043E0,9.460149E0,-1.012411E0,3.498195E0,-1.8529202E-1,-1.533612E-1,2.6483045E0,-9.58988E-1,4.3128505E-1,-1.7095153E-1,1.4148339E0,5.331968E-1,4.605445E-1,3.1537887E-1,-2.5005093E-2,-2.8670168E-2,1.075133E0,-5.1530745E-2,6.6134787E-1,1.1324731E-1,-8.020755E-2,-1.8971825E-2,-8.167438E-2,8.8589203E-1,-3.4478683E-2,1.4559269E-2,-5.8594454E-2,1.3650374E-1,1.5888371E0,-5.476123E-2,7.4773595E-2,4.6208855E-2,-2.5601972E-2,4.9201128E-1,3.0331E-2,1.0631442E-2,-6.1791863E-2,4.227538E-2,4.824724E-3,2.363472E-2,-3.6456086E-2,5.3130288E-2,1.00044705E-1,3.4216404E-2,-1.8216055E-2],"categories":[],"categories_nodes":[],"categories_segments":[],"categories_sizes":[],"default_left":[0,0,0,0,0,0,0,0,0,0,0,0,0,0,0,0,0,0,0,0,0,0,0,0,0,0,0,0,0,0,0,0,0,0,0,0,0,0,0,0,0,0,0,0,0,0,0,0,0,0,0,0,0,0,0,0,0,0,0,0,0,0,0,0,0,0,0,0,0,0,0,0,0,0,0,0,0],"id":17,"left_children":[1,3,5,7,9,11,13,15,17,19,21,-1,23,-1,25,27,-1,29,31,-1,33,35,37,39,41,43,-1,45,47,49,51,-1,53,55,57,59,61,63,65,67,69,71,73,-1,75,-1,-1,-1,-1,-1,-1,-1,-1,-1,-1,-1,-1,-1,-1,-1,-1,-1,-1,-1,-1,-1,-1,-1,-1,-1,-1,-1,-1,-1,-1,-1,-1],"loss_changes":[1.1747705E3,8.1871796E2,1.2524318E3,4.2825153E2,8.2689856E2,3.7593842E2,2.2737402E3,8.470835E2,2.7380212E2,1.0189728E3,3.0739682E2,0E0,1.62787E1,0E0,9.4444446E2,5.586701E2,0E0,2.104278E2,1.0364482E3,0E0,5.284764E2,8.736856E2,2.9235944E2,6.1966743E0,5.0103683E0,1.7171916E2,0E0,2.976915E2,3.413413E2,2.166447E2,1.8613733E2,0E0,1.4832478E0,7.6653735E2,2.6280832E0,2.4546426E3,2.2186885E2,1.5777444E2,5.960597E2,2.208942E0,8.891578E-1,1.4224435E0,1.795948E0,0E0,2.27982E0,0E0,0E0,0E0,0E0,0E0,0E0,0E0,0E0,0E0,0E0,0E0,0E0,0E0,0E0,0E0,0E0,0E0,0E0,0E0,0E0,0E0,0E0,0E0,0E0,0E0,0E0,0E0,0E0,0E0,0E0,0E0,0E0],"parents":[2147483647,0,0,1,1,2,2,3,3,4,4,5,5,6,6,7,7,8,8,9,9,10,10,12,12,14,14,15,15,17,17,18,18,20,20,21,21,22,22,23,23,24,24,25,25,27,27,28,28,29,29,30,30,32,32,33,33,34,34,35,35,36,36,37,37,38,38,39,39,40,40,41,41,42,42,44,44],"right_children":[2,4,6,8,10,12,14,16,18,20,22,-1,24,-1,26,28,-1,30,32,-1,34,36,38,40,42,44,-1,46,48,50,52,-1,54,56,58,60,62,64,66,68,70,72,74,-1,76,-1,-1,-1,-1,-1,-1,-1,-1,-1,-1,-1,-1,-1,-1,-1,-1,-1,-1,-1,-1,-1,-1,-1,-1,-1,-1,-1,-1,-1,-1,-1,-1],"split_conditions":[2.5348163E0,1.547071E-1,7.198957E-1,-9.089779E-1,-1.901237E0,-1.8331238E0,-8.605439E-1,1.2884831E0,2.095692E0,-6.8699664E-1,1.0121202E-1,7.4592584E-1,-5.9906846E-1,1.8797053E0,1.6575278E0,-9.373531E-1,8.826801E-1,-2.235126E0,9.560584E-1,1.2086825E0,-1.8682317E0,-3.0390024E-1,1.3051633E0,-1.6004746E-1,-9.3685997E-1,-1.6004746E-1,1.3044544E0,-1.4977661E0,-7.726528E-1,6.738833E-1,-2.0456045E0,1.2138203E0,-1.1765472E0,-1.5259321E-1,-2.235126E0,-3.1470364E-1,1.7650003E0,-7.1479136E-1,1.4780614E0,-1.0929816E0,-8.2061696E-1,1.5313031E-1,1.1377913E-1,5.331968E-1,9.210419E-1,3.1537887E-1,-2.5005093E-2,-2.8670168E-2,1.075133E0,-5.1530745E-2,6.6134787E-1,1.1324731E-1,-8.020755E-2,-1.8971825E-2,-8.167438E-2,8.8589203E-1,-3.4478683E-2,1.4559269E-2,-5.8594454E-2,1.3650374E-1,1.5888371E0,-5.476123E-2,7.4773595E-2,4.6208855E-2,-2.5601972E-2,4.9201128E-1,3.0331E-2,1.0631442E-2,-6.1791863E-2,4.227538E-2,4.824724E-3,2.363472E-2,-3.6456086E-2,5.3130288E-2,1.00044705E-1,3.4216404E-2,-1.8216055E-2],"split_indices":[19,19,11,4,2,11,4,6,4,10,21,0,0,0,0,4,0,6,20,0,17,10,10,23,21,23,0,11,0,0,0,0,6,6,6,10,12,0,10,2,10,0,11,0,6,0,0,0,0,0,0,0,0,0,0,0,0,0,0,0,0,0,0,0,0,0,0,0,0,0,0,0,0,0,0,0,0],"split_type":[0,0,0,0,0,0,0,0,0,0,0,0,0,0,0,0,0,0,0,0,0,0,0,0,0,0,0,0,0,0,0,0,0,0,0,0,0,0,0,0,0,0,0,0,0,0,0,0,0,0,0,0,0,0,0,0,0,0,0,0,0,0,0,0,0,0,0,0,0,0,0,0,0,0,0,0,0],"sum_hessian":[1.27E3,1.224E3,4.6E1,4.99E2,7.25E2,3.2E1,1.4E1,8.7E1,4.12E2,2E1,7.05E2,1E0,3.1E1,2E0,1.2E1,8.5E1,2E0,4.04E2,8E0,2E0,1.8E1,2.59E2,4.46E2,1.1E1,2E1,1.1E1,1E0,8.3E1,2E0,3E0,4.01E2,1E0,7E0,8E0,1E1,1.16E2,1.43E2,4.06E2,4E1,5E0,6E0,2E0,1.8E1,1E0,1E1,6E0,7.7E1,1E0,1E0,2E0,1E0,1.2E1,3.89E2,2E0,5E0,4E0,4E0,1E0,9E0,1.14E2,2E0,9.3E1,5E1,1.01E2,3.05E2,8E0,3.2E1,1E0,4E0,2E0,4E0,1E0,1E0,1.3E1,5E0,8E0,2E0],"tree_param":{"num_deleted":"0","num_feature":"26","num_nodes":"77","size_leaf_vector":"1"}},{"base_weights":[2.0745459E-1,-3.4218675E-1,2.1459517E0,-1.1070474E0,1.18986845E-1,1.9022397E0,1.873023E1,3.341006E0,-1.1758144E0,4.831005E0,1.1177307E-2,4.2725677E0,7.069574E-1,1.27107E0,-3.3582E-2,-1.19135074E-1,7.989886E-1,-1.2625926E0,2.4645283E0,1.6805237E1,-1.6392107E0,-7.087401E-1,4.8268336E-1,3.2466846E0,1.7154398E0,-4.712492E-1,2.6551464E0,1.4729948E-1,-1.4322329E0,7.225599E-1,-8.402052E-1,-3.8807264E-1,1.41984E0,-6.064956E-1,-1.9951607E0,-1.0034199E0,3.0305035E0,5.510539E0,1.8049632E-1,7.176351E-1,7.5398383E0,9.117165E-1,-6.077434E-1,9.663494E0,1.2092243E0,1.7812361E-1,-4.7956035E-2,-7.51648E-2,3.6648028E-2,-1.0946027E-2,-9.0135306E-2,2.139089E-2,-5.049634E-2,-9.107423E-3,-3.4361426E-2,-1.0717294E-1,-2.7634287E-2,2.8734213E-1,-5.600006E-2,9.693905E-1,-1.1294899E-2,6.4860964E-1,-5.833587E-2,-6.0621668E-3,1.5459219E-1,-2.3411741E-2,2.2814026E-1,1.55194E0,2.1322468E-1,-2.513814E-2,5.5172037E-2,-3.953554E-2,2.8968439E-2,-6.600464E-2,8.8487494E-1,4.342284E-2,3.6971614E-1],"categories":[],"categories_nodes":[],"categories_segments":[],"categories_sizes":[],"default_left":[0,0,0,0,0,0,0,0,0,0,0,0,0,0,0,0,0,0,0,0,0,0,0,0,0,0,0,0,0,0,0,0,0,0,0,0,0,0,0,0,0,0,0,0,0,0,0,0,0,0,0,0,0,0,0,0,0,0,0,0,0,0,0,0,0,0,0,0,0,0,0,0,0,0,0,0,0],"id":18,"left_children":[1,3,5,7,9,11,13,15,17,19,21,23,25,-1,-1,-1,-1,27,29,31,33,35,37,39,-1,41,43,45,47,-1,49,51,-1,53,55,57,59,61,63,65,67,69,71,73,75,-1,-1,-1,-1,-1,-1,-1,-1,-1,-1,-1,-1,-1,-1,-1,-1,-1,-1,-1,-1,-1,-1,-1,-1,-1,-1,-1,-1,-1,-1,-1,-1],"loss_changes":[1.3698738E3,3.5357077E2,1.1122382E3,1.1924466E2,3.179543E2,7.931119E2,5.3635876E2,4.721186E2,1.2062744E2,1.1122094E3,2.0842213E2,2.7850942E3,4.327806E2,0E0,0E0,0E0,0E0,8.7270386E1,3.6865674E2,1.00750684E3,2.465891E0,2.707976E2,5.6268524E2,9.934882E2,0E0,2.2828573E1,7.077949E2,1.5456146E2,5.1108215E1,0E0,4.389247E0,1.9541594E0,0E0,1.1857629E-2,3.127594E-1,1.8428816E2,9.631669E2,1.0614258E3,3.0871744E2,2.7116888E2,2.4845195E3,3.537858E0,2.3916027E1,1.0822687E3,1.20039215E2,0E0,0E0,0E0,0E0,0E0,0E0,0E0,0E0,0E0,0E0,0E0,0E0,0E0,0E0,0E0,0E0,0E0,0E0,0E0,0E0,0E0,0E0,0E0,0E0,0E0,0E0,0E0,0E0,0E0,0E0,0E0,0E0],"parents":[2147483647,0,0,1,1,2,2,3,3,4,4,5,5,6,6,7,7,8,8,9,9,10,10,11,11,12,12,17,17,18,18,19,19,20,20,21,21,22,22,23,23,25,25,26,26,27,27,28,28,30,30,31,31,33,33,34,34,35,35,36,36,37,37,38,38,39,39,40,40,41,41,42,42,43,43,44,44],"right_children":[2,4,6,8,10,12,14,16,18,20,22,24,26,-1,-1,-1,-1,28,30,32,34,36,38,40,-1,42,44,46,48,-1,50,52,-1,54,56,58,60,62,64,66,68,70,72,74,76,-1,-1,-1,-1,-1,-1,-1,-1,-1,-1,-1,-1,-1,-1,-1,-1,-1,-1,-1,-1,-1,-1,-1,-1,-1,-1,-1,-1,-1,-1,-1,-1],"split_conditions":[1.3447617E0,-3.9386636E-1,2.1782808E0,-1.1835376E0,-3.6268106E-1,-4.4841498E-1,1.0870563E-1,5.37822E-1,1.9014229E0,-5.1974154E-1,-2.789443E-1,-4.6933272E-1,3.4788886E-1,1.27107E0,-3.3582E-2,-1.19135074E-1,7.989886E-1,-1.4091287E0,-5.779483E-1,-4.1217837E-1,-1.0837759E0,1.481401E0,-2.1721025E-1,3.054444E-1,1.7154398E0,-1.3269267E0,-1.0107414E0,-6.2904865E-1,2.0219727E0,7.225599E-1,-8.370257E-2,-4.2548412E-1,1.41984E0,-9.4623715E-1,8.440884E-2,-1.147336E0,1.5321966E0,3.8177655E-3,1.268221E0,8.9230824E-1,4.0618822E-1,-1.3512672E0,2.5348163E0,-6.673488E-1,1.9796671E0,1.7812361E-1,-4.7956035E-2,-7.51648E-2,3.6648028E-2,-1.0946027E-2,-9.0135306E-2,2.139089E-2,-5.049634E-2,-9.107423E-3,-3.4361426E-2,-1.0717294E-1,-2.7634287E-2,2.8734213E-1,-5.600006E-2,9.693905E-1,-1.1294899E-2,6.4860964E-1,-5.833587E-2,-6.0621668E-3,1.5459219E-1,-2.3411741E-2,2.2814026E-1,1.55194E0,2.1322468E-1,-2.513814E-2,5.5172037E-2,-3.953554E-2,2.8968439E-2,-6.600464E-2,8.8487494E-1,4.342284E-2,3.6971614E-1],"split_indices":[19,9,0,7,9,1,1,4,11,7,5,1,18,0,0,0,0,0,7,6,1,6,5,11,0,4,9,4,10,0,5,0,0,0,4,7,6,4,10,4,11,0,19,10,9,0,0,0,0,0,0,0,0,0,0,0,0,0,0,0,0,0,0,0,0,0,0,0,0,0,0,0,0,0,0,0,0],"split_type":[0,0,0,0,0,0,0,0,0,0,0,0,0,0,0,0,0,0,0,0,0,0,0,0,0,0,0,0,0,0,0,0,0,0,0,0,0,0,0,0,0,0,0,0,0,0,0,0,0,0,0,0,0,0,0,0,0,0,0,0,0,0,0,0,0,0,0,0,0,0,0,0,0,0,0,0,0],"sum_hessian":[1.284E3,1.001E3,2.83E2,3.76E2,6.25E2,2.8E2,3E0,5E0,3.71E2,1.3E1,6.12E2,9.3E1,1.87E2,2E0,1E0,4E0,1E0,3.63E2,8E0,4E0,9E0,2.42E2,3.7E2,9.1E1,2E0,1.17E2,7E1,3.9E1,3.24E2,1E0,7E0,2E0,2E0,3E0,6E0,2.25E2,1.7E1,2E1,3.5E2,5.8E1,3.3E1,1E1,1.07E2,1.1E1,5.9E1,9E0,3E1,3.14E2,1E1,5E0,2E0,1E0,1E0,1E0,2E0,5E0,1E0,3E0,2.22E2,2E0,1.5E1,9E0,1.1E1,3.18E2,3.2E1,4.5E1,1.3E1,3E0,3E1,1E0,9E0,9.3E1,1.4E1,5E0,6E0,5.7E1,2E0],"tree_param":{"num_deleted":"0","num_feature":"26","num_nodes":"77","size_leaf_vector":"1"}},{"base_weights":[1.9761938E-1,-2.3770367E-1,1.8020555E0,-3.1960714E-1,4.5844946E0,1.5557092E0,1.810309E1,-5.182635E-1,7.2409475E-1,1.0690059E1,-7.58406E-1,9.701902E-1,1.4182483E0,1.228701E0,-3.2742452E-2,-7.553865E-1,3.665324E-1,1.3241555E1,2.3487635E-1,1.0781538E0,-1.4636783E-1,-1.2564074E0,3.026979E-1,6.3136578E0,1.065746E0,5.442554E-1,-1.0831684E0,5.8076615E0,-3.982534E-1,2.0956413E1,-1.4587746E0,4.229406E0,-4.9318108E-1,-4.4524144E-2,3.232683E-2,-1.4761146E0,1.5459061E-3,2.3752047E-2,8.690325E-2,-8.728593E-1,1.7731451E1,4.1548834E0,6.80012E-1,-1.3814076E-2,2.2581248E-1,2.0816295E-1,-5.655356E-2,3.0956239E-2,8.418754E-1,-5.762578E-2,2.7451783E-1,1.3697606E0,4.1000392E-2,-8.859427E-2,-2.0813823E-2,6.460066E-1,3.0735595E-2,4.7139916E-1,-3.591687E-2,-8.173802E-2,-1.7072154E-2,5.6581977E-3,8.5954665E-4,-1.2169736E-1,1.0596401E-2,1.5694654E0,-1.7963445E-2,1.5006999E0,5.056682E-2,2.125066E-1,2.304907E-2],"categories":[],"categories_nodes":[],"categories_segments":[],"categories_sizes":[],"default_left":[0,0,0,0,0,0,0,0,0,0,0,0,0,0,0,0,0,0,0,0,0,0,0,0,0,0,0,0,0,0,0,0,0,0,0,0,0,0,0,0,0,0,0,0,0,0,0,0,0,0,0,0,0,0,0,0,0,0,0,0,0,0,0,0,0,0,0,0,0,0,0],"id":19,"left_children":[1,3,5,7,9,11,13,15,17,19,21,-1,23,-1,-1,25,27,29,31,-1,33,35,37,39,41,43,45,47,49,51,53,55,57,-1,-1,59,-1,-1,61,63,65,67,69,-1,-1,-1,-1,-1,-1,-1,-1,-1,-1,-1,-1,-1,-1,-1,-1,-1,-1,-1,-1,-1,-1,-1,-1,-1,-1,-1,-1],"loss_changes":[9.000294E2,4.019494E2,1.0761543E3,2.0729865E2,5.626715E2,6.398094E2,5.0161755E2,1.763036E2,9.766935E2,9.4575354E2,5.6646237E0,0E0,4.6092072E2,0E0,0E0,2.8260095E2,7.4302405E2,7.110364E2,4.5286414E2,0E0,3.5257902E0,2.0254822E0,1.074802E-1,1.4924519E3,2.9983728E2,4.3797626E2,1.3765643E2,1.2486083E3,7.0365204E2,4.961526E2,2.4165821E-1,7.4600134E2,3.0163565E2,0E0,0E0,5.218859E-1,0E0,0E0,3.5466868E-3,2.0837204E1,1.7408406E3,2.2457473E3,1.7554692E2,0E0,0E0,0E0,0E0,0E0,0E0,0E0,0E0,0E0,0E0,0E0,0E0,0E0,0E0,0E0,0E0,0E0,0E0,0E0,0E0,0E0,0E0,0E0,0E0,0E0,0E0,0E0,0E0],"parents":[2147483647,0,0,1,1,2,2,3,3,4,4,5,5,6,6,7,7,8,8,9,9,10,10,12,12,15,15,16,16,17,17,18,18,20,20,21,21,22,22,23,23,24,24,25,25,26,26,27,27,28,28,29,29,30,30,31,31,32,32,35,35,38,38,39,39,40,40,41,41,42,42],"right_children":[2,4,6,8,10,12,14,16,18,20,22,-1,24,-1,-1,26,28,30,32,-1,34,36,38,40,42,44,46,48,50,52,54,56,58,-1,-1,60,-1,-1,62,64,66,68,70,-1,-1,-1,-1,-1,-1,-1,-1,-1,-1,-1,-1,-1,-1,-1,-1,-1,-1,-1,-1,-1,-1,-1,-1,-1,-1,-1,-1],"split_conditions":[1.3447617E0,2.095692E0,2.1782808E0,9.4666165E-1,-1.9173568E-1,-2.5640237E0,1.0870563E-1,5.679299E-1,9.652638E-1,7.474324E-3,1.0682058E0,9.701902E-1,-1.5087198E0,1.228701E0,-3.2742452E-2,-8.335198E-1,6.5439403E-1,-2.5804412E-2,5.899721E-1,1.0781538E0,-5.41207E-1,7.5202423E-1,-2.765319E-2,-1.7233218E0,-8.762149E-1,-9.082135E-1,-2.0440803E0,4.6200475E-1,6.8568945E-1,-4.2548412E-1,-1.1776829E0,-4.8289862E-1,-1.1835376E0,-4.4524144E-2,3.232683E-2,-2.838845E-1,1.5459061E-3,2.3752047E-2,-1.9403835E-1,-5.002258E-1,2.9834528E0,-1.2909862E0,-1.6394705E0,-1.3814076E-2,2.2581248E-1,2.0816295E-1,-5.655356E-2,3.0956239E-2,8.418754E-1,-5.762578E-2,2.7451783E-1,1.3697606E0,4.1000392E-2,-8.859427E-2,-2.0813823E-2,6.460066E-1,3.0735595E-2,4.7139916E-1,-3.591687E-2,-8.173802E-2,-1.7072154E-2,5.6581977E-3,8.5954665E-4,-1.2169736E-1,1.0596401E-2,1.5694654E0,-1.7963445E-2,1.5006999E0,5.056682E-2,2.125066E-1,2.304907E-2],"split_indices":[19,4,0,3,3,2,1,7,3,1,17,0,3,0,0,11,7,4,17,0,0,1,1,3,7,11,18,6,17,0,0,11,7,0,0,7,0,0,0,1,14,6,4,0,0,0,0,0,0,0,0,0,0,0,0,0,0,0,0,0,0,0,0,0,0,0,0,0,0,0,0],"split_type":[0,0,0,0,0,0,0,0,0,0,0,0,0,0,0,0,0,0,0,0,0,0,0,0,0,0,0,0,0,0,0,0,0,0,0,0,0,0,0,0,0,0,0,0,0,0,0,0,0,0,0,0,0,0,0,0,0,0,0,0,0,0,0,0,0,0,0,0,0,0,0],"sum_hessian":[1.287E3,1.013E3,2.74E2,9.97E2,1.6E1,2.71E2,3E0,8.38E2,1.59E2,7E0,9E0,1E0,2.7E2,2E0,1E0,6.61E2,1.77E2,5E0,1.54E2,3E0,4E0,6E0,3E0,1.7E1,2.53E2,1.33E2,5.28E2,2.1E1,1.56E2,3E0,2E0,2.3E1,1.31E2,2E0,2E0,5E0,1E0,1E0,2E0,1.1E1,6E0,2.7E1,2.26E2,1.11E2,2.2E1,4E0,5.24E2,1.5E1,6E0,1.39E2,1.7E1,2E0,1E0,1E0,1E0,6E0,1.7E1,2E0,1.29E2,4E0,1E0,1E0,1E0,4E0,7E0,3E0,3E0,2E0,2.5E1,1.2E1,2.14E2],"tree_param":{"num_deleted":"0","num_feature":"26","num_nodes":"71","size_leaf_vector":"1"}},{"base_weights":[1.8375136E-1,1.1271331E-2,4.597602E0,3.2843971E0,-8.256214E-2,1.0175894E1,7.254876E-1,-2.7219105E-1,1.3589229E1,